tree
version=v4
num_class=1
num_tree_per_iteration=1
label_index=0
max_feature_idx=5
objective=lambdarank
feature_names=sameCity ageDiff goalsMatchCount trustScore isVerified likesReceived
feature_infos=[0:1] [0:17] [0:3] none [0:1] [0:39]
tree_sizes=3544 3528 3529 3523 3515 3509 3514 3513 3512 3512 3524 3548 3516 3533 3525 3556 3541 3535 3532 3552 3555 3548 3563 3552 3566 3567 3567 3574 3566 3571 3576 3570 3560 3569 3574 3569 3560 3578 3553 3578 3557 3548 3560 3557 3550 3569 3563 3580 3561 3564 3548 3568 3575 3576 3567 3564 3591 3564 3569 3587 3564 3610 3563 3584 3571 3593 3562 3568 3563 3561 3565 3568 3578 3591 3604 3568 3567 3593 3578 3593 3564 3582 3583 3594 3550 3576 3549 3579 3567 3622 3587 3580 3594 3569 3578 3617 3580 3603 3593 3586

Tree=0
num_leaves=32
num_cat=0
split_feature=5 5 2 2 1 0 0 1 4 1 1 5 5 5 0 1 4 5 5 2 1 1 5 1 2 2 5 1 1 5 5
split_gain=61.9778 15.6225 11.1552 7.37523 6.43753 6.15471 5.96542 4.89398 3.97818 3.35685 3.07999 3.00824 2.77572 2.59344 2.55262 2.17844 2.13163 2.0695 2.00069 1.73986 1.39953 1.39658 1.72991 1.2513 1.80078 1.16131 1.06297 1.06121 0.952304 0.905456 1.16283
threshold=14.500000000000002 4.5000000000000009 1.0000000180025095e-35 1.0000000180025095e-35 4.5000000000000009 1.0000000180025095e-35 1.0000000180025095e-35 6.5000000000000009 1.0000000180025095e-35 8.5000000000000018 2.5000000000000004 30.500000000000004 12.500000000000002 6.5000000000000009 1.0000000180025095e-35 3.5000000000000004 1.0000000180025095e-35 15.500000000000002 3.5000000000000004 1.5000000000000002 1.0000000180025095e-35 1.5000000000000002 17.500000000000004 4.5000000000000009 1.5000000000000002 1.5000000000000002 17.500000000000004 1.0000000180025095e-35 1.5000000000000002 19.500000000000004 21.500000000000004
decision_type=2 2 2 2 2 2 2 2 2 2 2 2 2 2 2 2 2 2 2 2 2 2 2 2 2 2 2 2 2 2 2
left_child=1 6 8 13 14 7 18 12 -2 -9 -7 -6 20 -3 17 26 -15 19 -1 -4 -5 22 -19 24 -20 27 -10 -14 -21 -24 -31
right_child=2 3 4 5 11 10 -8 9 15 -11 -12 -13 25 16 -16 -17 -18 21 23 28 -22 -23 29 -25 -26 -27 -28 -29 -30 30 -32
leaf_value=-0.064430578242488296 0.064163708989996224 -0.060318924402091426 0.036172940520063812 0.0055239533261250391 -0.022211838967633742 0.069715770562550294 0.036924152353256287 -0.090268905145032954 -0.051428892240134833 -0.0039308636585992452 -0.0057757555835045932 0.067516547161940874 0.032703315020146916 0.026729840839398524 0.077567231988331292 -0.06343020564713639 -0.028968840107289163 0.076002853093310979 -0.039491324401842949 -0.086128136008465805 -0.011717119168578193 0.034155941825700753 0.031718852953044059 -0.063169600098473583 0.017034193868236968 0.031926277594874632 -0.0019797142124641088 -0.0069077155401811767 -0.0039851835870322039 0.072820602336308993 0.044733003742525299
leaf_weight=18.339295029232744 1.8438830962404615 6.4736050483188619 1.6387135201366612 14.392626789864151 5.6564843708183608 4.0449803401716045 1.9300529491156329 2.9119127865415058 1.1939584561623622 1.835445389151573 2.0287720113992691 1.1188664380460975 2.286838928004725 1.8601968658622414 5.1235093737486741 1.9170604022219784 22.433222266612571 5.1184571976773432 8.3555454057059233 0.61683959932997801 64.607182524749078 27.219243541243486 9.4993297053733823 3.9515261984197414 1.6947969609173004 6.0231919232755891 12.106773267849347 6.4881188829895109 0.82440468389540911 4.5152397474739727 20.038155056885444
leaf_count=844 44 311 58 495 223 80 50 139 56 69 56 25 61 68 110 84 856 104 375 32 2461 796 299 195 60 178 410 230 36 92 491
internal_value=3.98135e-10 -0.0183117 0.0315624 -0.010678 0.0392701 -0.00434937 -0.0484682 -0.00736015 -0.0051965 -0.0568885 0.0444999 -0.00739429 -0.0048534 -0.0321975 0.0435086 -0.0136006 -0.0247039 0.0409967 -0.0535642 0.000930025 -0.00857604 0.0428555 0.0489006 -0.0393318 -0.0299594 0.0150199 -0.00641859 0.0034153 -0.0391416 0.0448269 0.0498982
internal_weight=268.088 169.657 98.4309 135.386 81.3692 104.619 34.2712 98.5453 17.0617 4.74736 6.07375 6.77535 93.798 30.767 74.5939 15.2178 24.2934 69.4704 32.3412 3.07996 78.9998 66.3904 39.1712 14.0019 10.0503 14.7981 13.3007 8.77496 1.44124 34.0527 24.5534
internal_count=9388 6528 2860 5004 2266 3769 1524 3633 594 208 136 248 3425 1235 2018 550 924 1908 1474 126 2956 1782 986 630 435 469 466 291 68 882 583
is_linear=0
shrinkage=0.05


Tree=1
num_leaves=32
num_cat=0
split_feature=5 0 2 0 1 5 1 4 5 1 2 2 5 1 5 5 4 5 5 5 1 5 4 1 1 2 5 5 5 5 5
split_gain=203.113 56.2611 27.7584 17.6048 19.074 15.6923 9.82139 6.33995 5.09218 5.57799 4.98126 4.83943 4.30002 4.25894 3.27785 2.9803 2.80461 2.59945 2.28633 2.08375 1.98296 3.03887 1.88467 1.64707 2.60371 1.61149 1.59578 2.23029 1.50383 6.58707 4.08804
threshold=14.500000000000002 1.0000000180025095e-35 1.0000000180025095e-35 1.0000000180025095e-35 1.5000000000000002 7.5000000000000009 2.5000000000000004 1.0000000180025095e-35 25.500000000000004 4.5000000000000009 1.0000000180025095e-35 1.0000000180025095e-35 15.500000000000002 1.0000000180025095e-35 27.500000000000004 12.500000000000002 1.0000000180025095e-35 4.5000000000000009 7.5000000000000009 6.5000000000000009 1.5000000000000002 18.500000000000004 1.0000000180025095e-35 8.5000000000000018 6.5000000000000009 2.5000000000000004 38.500000000000007 27.500000000000004 17.500000000000004 16.500000000000004 18.500000000000004
decision_type=2 2 2 2 2 2 2 2 2 2 2 2 2 2 2 2 2 2 2 2 2 2 2 2 2 2 2 2 2 2 2
left_child=1 5 7 4 12 11 15 -2 9 -6 16 -1 -4 -12 20 18 -7 25 -3 -8 21 -9 -10 24 -15 -13 27 28 29 -14 -30
right_child=2 6 3 -5 8 10 19 14 22 -11 13 17 26 23 -16 -17 -18 -19 -20 -21 -22 -23 -24 -25 -26 -27 -28 -29 30 -31 -32
leaf_value=-0.073730538682533028 0.024072292523834086 0.040160346937687275 -0.010453448964616989 0.058672177473786405 0.0059264303726851483 0.0033048948718785577 -0.055464160935880628 0.0077349219690075665 0.055393959974368349 -0.038783504589503595 -0.0067794109439274679 -0.06362084924711929 0.028549242013952932 -0.029500553207218679 0.011009311863680492 0.0041275344445338216 -0.052794978241691493 -0.041930815033924533 0.073973586227389573 0.0038164851601548231 -0.056181031608833677 -0.042268473387067691 0.020600029307777587 0.011982006683972125 -0.09237519150270046 -0.0049074893968071324 0.013532260585234664 0.052868977424469402 -0.0011834078796344252 0.077320759438501974 0.035662295878434259
leaf_weight=24.783611949533224 7.1372258439660063 11.784422265365729 4.9174063550308338 46.861249515786767 64.949908560141921 2.442156400531533 2.8436255250126115 4.6239952500909629 5.0073650814592865 7.8154903855174771 26.645589559338987 25.968727300874892 20.116887293756008 83.57299593091011 4.2572526261210433 3.42747873160988 25.389992470853031 52.480051924474537 8.6826418749988061 3.0966921057552099 8.3037248151376826 8.8612130098044855 17.472148297354579 2.3174501135945311 1.6796670341864217 1.2237494811415661 6.9278418980538836 21.836260594427586 8.1841909252107126 10.555777452886106 93.894779501482844
leaf_count=911 44 81 72 119 696 30 46 88 29 206 424 939 73 1869 76 24 734 1219 46 47 220 166 158 40 81 37 40 118 112 31 612
internal_value=-6.93902e-11 -0.0318742 0.0257755 0.0304489 0.0253947 -0.039723 0.0329748 -0.017678 0.00755015 0.00112428 -0.0289049 -0.0544343 0.0356067 -0.0242829 -0.0291185 0.0472786 -0.0478724 -0.0484319 0.0545048 -0.0245611 -0.0369589 -0.0251226 0.0283505 -0.0296087 -0.0307393 -0.0609786 0.037009 0.0380611 0.0356253 0.0453336 0.0327082
internal_weight=618.062 276.339 341.723 308.539 261.678 246.504 29.8349 33.1834 95.2449 72.7654 142.048 104.456 166.433 114.216 26.0462 23.8945 27.8321 79.6725 20.4671 5.94032 21.7889 13.4852 22.4795 87.5701 85.2527 27.1925 161.516 154.588 132.752 30.6727 102.079
internal_count=9388 6528 2860 2266 2147 6284 244 594 1089 902 3178 3106 1058 2414 550 151 764 2195 127 93 474 254 187 1990 1950 976 986 946 828 104 724
is_linear=0
shrinkage=0.05


Tree=2
num_leaves=32
num_cat=0
split_feature=5 0 2 5 1 0 1 2 5 4 2 1 4 5 0 5 1 4 5 2 5 1 5 5 5 4 1 5 5 5 5
split_gain=135.751 62.0992 23.5692 15.3938 12.9565 12.2101 5.88134 4.63318 4.49508 4.44561 3.69286 3.37876 2.73628 2.2603 2.23266 4.78941 2.17352 2.10773 2.05558 2.3274 1.98393 2.39304 1.94306 4.66594 2.22976 2.04234 1.89993 1.86441 2.8536 1.81665 2.07391
threshold=14.500000000000002 1.0000000180025095e-35 1.0000000180025095e-35 7.5000000000000009 1.5000000000000002 1.0000000180025095e-35 2.5000000000000004 1.0000000180025095e-35 27.500000000000004 1.0000000180025095e-35 1.0000000180025095e-35 4.5000000000000009 1.0000000180025095e-35 7.5000000000000009 1.0000000180025095e-35 15.500000000000002 1.5000000000000002 1.0000000180025095e-35 4.5000000000000009 2.5000000000000004 13.500000000000002 9.5000000000000018 17.500000000000004 16.500000000000004 18.500000000000004 1.0000000180025095e-35 1.5000000000000002 18.500000000000004 17.500000000000004 19.500000000000004 18.500000000000004
decision_type=2 2 2 2 2 2 2 2 2 2 2 2 2 2 2 2 2 2 2 2 2 2 2 2 2 2 2 2 2 2 2
left_child=1 3 8 10 14 9 13 17 12 29 -1 -11 -2 -3 15 -4 -9 -5 19 -12 21 -18 23 -17 -24 -26 27 28 -14 30 -6
right_child=2 6 4 7 5 -7 -8 16 -10 11 18 -13 26 -15 -16 22 20 -19 -20 -21 -22 -23 24 -25 25 -27 -28 -29 -30 -31 -32
leaf_value=-0.070094864434755488 0.013758973328201593 0.029689811573820193 -0.026618453297505132 0.0027825156719603322 0.043667247740224964 0.055754063036429914 -0.016764572144371145 -0.013395310981342223 0.012848669049926785 0.0051394410448498892 -0.062137874810084107 -0.027492435597172196 -0.073592869590188473 0.056840609944016719 0.051361926969074947 0.028734847573823032 -0.033087439467334674 -0.049362360323259628 -0.040175776828790449 0.00032617414755948664 -0.0011923641058162494 0.030486715070576605 0.0053400381120925948 0.071405215757932489 -0.0057950320303731505 0.03533815410447104 -0.059374940198508586 -0.042646546277851742 0.018011062067345179 0.044855804595536043 -0.039754174839156907
leaf_weight=21.429727005772293 2.9344067573547425 15.595550923608245 3.2028190447017542 2.1215548664331463 1.4205839904025188 14.308515988290308 4.7482384862378231 51.80372310616076 7.943509896285831 61.436020655557513 22.970115717500452 9.1086650891229493 1.095211479812862 15.075297934934495 20.761469818651676 14.494807004928589 47.078164968173951 22.387059969827533 46.107013177592307 1.5947833275422443 6.2644440876319996 1.5282787401229132 7.1011717375367871 11.481138750910759 3.1022304669022551 110.80998488515615 6.7518716054037204 7.0537857292219996 3.7997739817947149 9.0974649516865593 1.5666897566989064
leaf_count=911 21 81 72 30 16 50 93 1098 99 774 939 206 35 70 69 73 1175 734 1219 37 123 18 112 31 23 747 220 166 53 60 33
internal_value=1.89053e-10 -0.0264884 0.0230364 -0.036245 0.027713 0.0131106 0.0350183 -0.0252447 -0.0193192 0.00572619 -0.0519132 0.000926043 -0.03113 0.0430349 0.0359933 0.0338688 -0.0207406 -0.0448485 -0.0464 -0.0580826 -0.0276754 -0.0310885 0.0351868 0.0475948 0.0325234 0.034218 -0.0381737 -0.0261936 -0.00248454 0.0337471 -8.35094e-05
internal_weight=556.174 258.704 297.47 223.285 267.892 96.9379 35.4191 131.183 29.5786 82.6294 92.1016 70.5447 21.635 30.6708 170.954 150.192 106.675 24.5086 70.6719 24.5649 54.8709 48.6064 146.989 25.9759 121.013 113.912 18.7006 11.9488 4.89499 12.0847 2.98727
internal_count=9388 6528 2860 6284 2266 1139 244 3178 594 1089 3106 980 495 151 1127 1058 2414 764 2195 976 1316 1193 986 104 882 770 474 254 88 109 49
is_linear=0
shrinkage=0.05


Tree=3
num_leaves=32
num_cat=0
split_feature=5 0 2 5 0 1 1 1 5 2 5 1 5 2 2 4 1 2 5 5 5 5 2 5 5 1 4 5 2 5 5
split_gain=106.901 50.7678 17.5994 12.3212 9.34436 11.6144 4.03871 3.40968 3.353 3.02602 2.83588 3.56431 2.54963 2.25424 1.78016 1.6764 1.64143 1.61305 1.57718 4.70971 2.27663 3.01575 3.29142 2.22924 1.53995 2.16495 1.89474 1.51148 1.49546 2.22742 1.61914
threshold=14.500000000000002 1.0000000180025095e-35 1.0000000180025095e-35 7.5000000000000009 1.0000000180025095e-35 1.5000000000000002 2.5000000000000004 1.5000000000000002 15.500000000000002 1.0000000180025095e-35 25.500000000000004 4.5000000000000009 27.500000000000004 1.5000000000000002 1.0000000180025095e-35 1.0000000180025095e-35 1.5000000000000002 1.5000000000000002 17.500000000000004 16.500000000000004 19.500000000000004 21.500000000000004 1.5000000000000002 22.500000000000004 12.500000000000002 9.5000000000000018 1.0000000180025095e-35 18.500000000000004 2.5000000000000004 4.5000000000000009 2.5000000000000004
decision_type=2 2 2 2 2 2 2 2 2 2 2 2 2 2 2 2 2 2 2 2 2 2 2 2 2 2 2 2 2 2 2
left_child=1 3 12 9 5 8 13 14 17 -1 11 -7 15 -3 -5 -2 27 -4 19 -10 -20 22 -22 -23 25 -9 -26 -17 29 -11 -30
right_child=2 6 4 7 -6 10 -8 24 18 28 -12 -13 -14 -15 -16 16 -18 -19 20 -21 21 23 -24 -25 26 -27 -28 -29 30 -31 -32
leaf_value=-0.067058740130214525 0.014719223836931354 0.044715168687434255 -0.00089742020168507913 -0.034887330516125928 0.049282646638164895 0.0040784841687396024 -0.01281649822150065 -0.039208793217584914 0.023328396232479301 -0.059513570539114762 0.020649207753606028 -0.034120466645242493 0.0061489187868512315 0.0092940297543795177 -0.011816920296966134 -0.0015424464773866424 -0.05672242131031216 -0.083744302445671173 0.014152571539085499 0.067564815647032414 0.029806096477068833 -0.00095216222920514271 0.067456932122905142 0.028907275374953356 0.037909428067245371 0.018005309960326964 -0.024210966426096589 -0.040245378647182445 0.034024013363336346 -0.039088748137987878 -0.034613553670155117
leaf_weight=18.929835755378008 1.8821956738829655 24.103258736431602 2.0685887876898046 10.089091007132081 32.703171629458666 50.919594922102988 4.4812519904226056 44.605547593906522 14.700151480734348 20.714867937844247 21.823225602507591 6.9389799833297721 6.7675270289182654 5.5205108225345603 48.833086155354977 4.5045979507267457 5.6850355677306661 0.82061792816966761 24.952708526514471 10.186246983706951 12.94074671715498 6.8957487083971492 10.526178665459156 66.830240156501532 1.3554512048140157 1.7170577077195037 13.003228022716938 5.7334843687713146 1.181087179109453 37.535523471422493 3.1527677513659
leaf_count=911 21 129 40 339 119 696 93 1336 73 939 187 206 99 22 1098 88 220 32 299 31 55 55 37 436 22 28 355 166 18 1150 88
internal_value=-1.04263e-10 -0.0249858 0.0204868 -0.0345513 0.0242772 0.0207156 0.0314222 -0.0243345 0.028914 -0.0495422 0.00529037 -0.000502717 -0.0199751 0.0381143 -0.0157672 -0.0299045 -0.0351792 -0.0244283 0.0299622 0.0414348 0.0276247 0.0310835 0.0466945 0.0261145 -0.0326534 -0.037088 -0.0183468 -0.0232167 -0.044244 -0.0463522 -0.015908
internal_weight=522.102 235.223 286.879 201.118 262.306 229.603 34.105 119.603 149.921 81.5141 79.6818 57.8586 24.5728 29.6238 58.9222 17.8053 15.9231 2.88921 147.032 24.8864 122.146 97.1929 23.4669 73.726 60.6813 46.3226 14.3587 10.2381 62.5842 58.2504 4.33385
internal_count=9388 6528 2860 6284 2266 2147 244 3178 1058 3106 1089 902 594 151 1437 495 474 72 986 104 882 583 92 491 1741 1364 377 254 2195 2089 106
is_linear=0
shrinkage=0.05


Tree=4
num_leaves=32
num_cat=0
split_feature=5 0 2 5 1 0 4 5 5 2 2 4 1 2 5 1 5 0 1 5 2 1 5 5 2 5 5 5 5 5 1
split_gain=90.4007 42.0492 16.0625 9.73291 7.66957 9.02862 3.98635 3.51947 4.44437 2.75014 2.57766 2.25363 1.96076 1.94111 1.81819 1.7565 1.58437 1.55023 3.57102 2.85624 1.53673 1.5213 1.48112 1.3651 1.39915 2.0602 1.40666 1.36413 1.29057 1.41621 2.16695
threshold=14.500000000000002 1.0000000180025095e-35 1.0000000180025095e-35 7.5000000000000009 1.5000000000000002 1.0000000180025095e-35 1.0000000180025095e-35 12.500000000000002 7.5000000000000009 1.0000000180025095e-35 1.0000000180025095e-35 1.0000000180025095e-35 2.5000000000000004 2.5000000000000004 27.500000000000004 4.5000000000000009 3.5000000000000004 1.0000000180025095e-35 1.0000000180025095e-35 15.500000000000002 1.5000000000000002 1.5000000000000002 24.500000000000004 1.5000000000000002 2.5000000000000004 4.5000000000000009 4.5000000000000009 32.500000000000007 13.500000000000002 10.500000000000002 8.5000000000000018
decision_type=2 2 2 2 2 2 2 2 2 2 2 2 2 2 2 2 2 2 2 2 2 2 2 2 2 2 2 2 2 2 2
left_child=1 3 14 9 17 6 -6 8 12 -1 11 -5 16 15 -2 -8 -3 19 -19 -4 -7 -12 -15 -11 26 -26 -25 -17 29 30 -23
right_child=2 7 4 10 5 20 13 -9 -10 23 21 -13 -14 22 -16 27 -18 18 -20 -21 -22 28 -24 24 25 -27 -28 -29 -30 -31 -32
leaf_value=-0.063621154075538353 -0.029085149036657699 0.050361157529395385 -0.023711185095637403 0.011146979512463779 0.031242826887452581 0.03092364324117779 0.00051034268227045964 -0.018388066129128324 0.054669679701704693 -0.07658611373602961 -0.013330052498804685 -0.043694383304561379 -0.02143260428542142 -0.00027854687778103364 0.0021762873463839808 -0.035760562008637566 0.01340381907107714 0.0081235979916875617 0.057394344717686618 0.028872738215901257 0.064285823272251755 -0.025816403869279764 0.068346634684222834 -0.053344549116999845 0.03857427480483272 -0.039417305565333044 -0.035868734465687724 0.025791022401314853 -0.0035392258716152162 -0.041577294775530377 0.035339824062373348
leaf_weight=17.756296982057393 16.728320409543816 4.0428134426474633 2.631133720278739 2.0644432269036797 11.678958727978168 6.5906531512737256 52.741095411591232 3.7164704138413063 13.442211857065557 2.5980296288616946 46.743566854856908 20.232094555161893 2.8702106894925228 1.427854712121188 6.4424004079774013 5.8509656926617017 10.2587903290987 5.131689816713334 12.97767985612154 139.5065102558583 7.24714620038867 24.116711738053713 1.749767239205539 17.097316710744053 1.3818049160763615 2.186747127212584 35.265221182256937 1.0638177655637262 5.553952492773532 14.771442161872981 1.5410153651610006
leaf_count=911 495 21 72 30 109 27 739 36 71 134 1098 734 56 27 99 181 60 20 49 986 23 717 20 818 24 69 1150 13 123 454 22
internal_value=-3.41049e-10 -0.0233933 0.0194226 -0.0325369 0.0231337 0.011306 0.004418 0.0275596 0.0331375 -0.0463851 -0.0233524 -0.0386166 0.016282 -0.000567975 -0.0203932 -0.00259624 0.023851 0.0296547 0.0434324 0.0278993 0.0483961 -0.0196821 0.0375101 -0.0411562 -0.0395104 -0.00921762 -0.0415749 -0.026291 -0.0261392 -0.0292438 -0.0221433
internal_weight=497.407 225.639 271.768 191.309 248.597 88.3503 74.5125 34.3305 30.614 76.2854 115.023 22.2965 17.1718 62.8335 23.1707 59.6559 14.3016 160.247 18.1094 142.138 13.8378 92.7267 3.17762 58.5291 55.9311 3.56855 52.3625 6.91478 45.9831 40.4292 25.6577
internal_count=9388 6528 2860 6284 2266 1139 1089 244 208 3106 3178 764 137 980 594 933 81 1127 69 1058 50 2414 47 2195 2061 93 1968 194 1316 1193 739
is_linear=0
shrinkage=0.05


Tree=5
num_leaves=32
num_cat=0
split_feature=5 0 2 5 0 1 5 2 2 5 2 4 2 1 5 5 1 5 1 1 5 5 5 5 5 2 1 4 1 5 2
split_gain=76.4469 37.6776 13.518 9.32855 7.94469 8.13923 3.16415 2.47611 3.24232 2.5484 2.22439 2.32823 2.12327 1.87964 1.86651 1.82145 1.61529 2.04048 1.45901 2.92778 1.44996 1.37719 4.05027 2.19122 2.0378 2.39095 1.25523 1.23426 1.67539 1.39076 1.1837
threshold=15.500000000000002 1.0000000180025095e-35 1.0000000180025095e-35 7.5000000000000009 1.0000000180025095e-35 1.5000000000000002 25.500000000000004 1.0000000180025095e-35 1.5000000000000002 3.5000000000000004 1.0000000180025095e-35 1.0000000180025095e-35 1.0000000180025095e-35 4.5000000000000009 8.5000000000000018 32.500000000000007 1.5000000000000002 7.5000000000000009 8.5000000000000018 6.5000000000000009 17.500000000000004 17.500000000000004 16.500000000000004 19.500000000000004 21.500000000000004 1.5000000000000002 1.5000000000000002 1.0000000180025095e-35 1.5000000000000002 22.500000000000004 2.5000000000000004
decision_type=2 2 2 2 2 2 2 2 2 2 2 2 2 2 2 2 2 2 2 2 2 2 2 2 2 2 2 2 2 2 2
left_child=1 3 20 12 5 21 13 9 16 -3 11 -5 -1 30 -11 -6 -9 -18 19 26 -2 22 -4 -23 25 -25 -12 -22 -29 -30 -7
right_child=2 7 4 10 15 6 -8 8 -10 14 18 -13 -14 -15 -16 -17 17 -19 -20 -21 27 23 -24 24 -26 -27 -28 28 29 -31 -32
leaf_value=-0.060357682399612859 -0.072405608089547602 0.045156413060804208 0.018305356817356306 0.014003541604803394 0.057814358429779805 -0.00023927002513521875 0.02172685874212725 0.05046478416139371 0.0029200002812230798 -0.066063324781598459 -0.012540693813274328 -0.041567499526810534 -0.039856694191472655 -0.029028889301193267 0.00018862638305437173 0.029959732068488256 0.0014090373934719019 0.049964427251640603 0.018306137080974935 -0.083142018862736158 0.013160070558477656 0.010504804726278731 0.061801187717574847 0.026308613505217189 0.023305807627881939 0.060405093938749099 -0.024342415209478052 -0.0088837874272818303 -0.063375973006676897 -0.017531230285517143 0.039820702481473291
leaf_weight=16.376009398605675 1.206684829667213 1.9205970279872406 12.121877186000347 2.0883465651422766 17.147494152188305 40.863044715486467 19.738377245143056 14.193259816616779 7.9065844239667049 1.6478379163891075 47.665203493088484 19.339264024980366 55.208316047675908 5.6862754272297016 2.995887597091496 8.9230050146579725 4.8319896990433318 3.918241566978395 2.6440877839922896 1.7650001039728511 3.080136049538857 24.512435041368008 9.5835882499814034 11.907401882112026 71.666275162249804 9.048667810857296 42.726949692703784 10.604589826427398 3.3804364232346407 3.2397317737340927 1.931137641891836
leaf_count=911 57 11 73 30 70 619 187 58 57 33 1170 748 2195 180 30 34 37 33 42 83 43 299 31 55 491 37 1271 257 129 94 23
internal_value=-1.20038e-10 -0.0212198 0.0187687 -0.0303475 0.0222682 0.018993 0.00485069 0.0245991 0.0305324 -0.00328583 -0.0216023 -0.0361515 -0.0445466 -0.00202028 -0.023321 0.0482807 0.040048 0.0231515 -0.0183138 -0.0193645 -0.0191562 0.0259418 0.03751 0.0237982 0.0273162 0.0410312 -0.0181192 -0.0159917 -0.0212046 -0.0409408 0.00156848
internal_weight=479.869 225.228 254.641 187.813 233.13 207.059 68.2188 37.4144 30.8501 6.56432 116.229 21.4276 71.5843 48.4805 4.64373 26.0705 22.9435 8.75023 94.8012 92.1572 21.5116 138.84 21.7055 117.135 92.6223 20.9561 90.3922 20.3049 17.2248 6.62017 42.7942
internal_count=9388 6709 2679 6450 2099 1995 1009 259 185 74 3344 778 3106 822 63 104 128 70 2566 2524 580 986 104 882 583 92 2441 523 480 223 642
is_linear=0
shrinkage=0.05


Tree=6
num_leaves=32
num_cat=0
split_feature=5 0 2 0 5 1 5 2 1 5 5 2 4 5 1 1 5 4 1 1 1 1 1 5 2 5 2 5 5 5 2
split_gain=71.3053 33.4732 12.6143 9.42721 8.09588 6.48183 2.54714 2.11724 1.93313 2.11934 1.88941 1.8408 1.80647 1.77399 1.65773 1.55981 1.5246 1.34091 1.15455 1.15008 2.02132 1.13028 1.54356 1.10532 1.09825 1.00446 1.27583 1.60395 1.19134 1.16527 0.961121
threshold=15.500000000000002 1.0000000180025095e-35 1.0000000180025095e-35 1.0000000180025095e-35 7.5000000000000009 1.5000000000000002 25.500000000000004 1.0000000180025095e-35 2.5000000000000004 12.500000000000002 8.5000000000000018 1.0000000180025095e-35 1.0000000180025095e-35 38.500000000000007 4.5000000000000009 4.5000000000000009 32.500000000000007 1.0000000180025095e-35 1.5000000000000002 8.5000000000000018 6.5000000000000009 2.5000000000000004 3.5000000000000004 17.500000000000004 2.5000000000000004 1.5000000000000002 2.5000000000000004 4.5000000000000009 6.5000000000000009 4.5000000000000009 1.5000000000000002
decision_type=2 2 2 2 2 2 2 2 2 2 2 2 2 2 2 2 2 2 2 2 2 2 2 2 2 2 2 2 2 2 2
left_child=1 4 23 5 11 13 15 12 9 10 -3 -1 -6 24 -10 -7 -5 -8 -9 20 -20 -19 -23 -2 -4 -13 29 -28 -29 -27 -24
right_child=2 8 3 16 7 6 17 18 14 -11 -12 25 -14 -15 -16 -17 -18 21 19 -21 -22 22 30 -25 -26 26 27 28 -30 -31 -32
leaf_value=-0.058146269472588399 -0.068266904954390709 0.025166039293795867 0.024471378477964611 0.057445081584718796 0.00954324119544692 0.0022500970990446691 0.037304954851549665 -0.012729769326004904 0.012971024956200769 0.0012363267492690635 0.054517199720259903 -0.071103755660312878 -0.04069636061829409 -0.0084659513549242855 -0.052332199529004642 -0.026359643310892189 0.031276401078256147 0.026457356260386151 -0.023621137364660851 0.0089051837404362944 -0.080230395649844119 -0.037192421808636203 -0.012794066039519471 -0.016262349195346214 0.050105947883976369 -0.05035885150873879 0.034035180647833847 -0.062076795135885168 0.023547367077104926 -0.033675598206779157 0.034563851651829486
leaf_weight=15.71138382097706 1.0773371243849421 14.989953000098472 125.81389397196472 18.658772885799412 1.9796014949679399 42.094446496106684 7.3469899892807016 47.847212450578809 3.7043911237269631 5.4201068896800271 8.6451313570141775 2.2790236757136872 18.611392936203629 4.0041503608226767 1.3174410257488487 5.3721550554037085 7.9319303184747687 5.8061355501413345 41.381974550895393 2.5307459495961657 1.6393498796969641 2.269618421792984 1.9163737855851648 19.802919154055417 4.3217219263315192 15.767655260395257 1.3784398250281804 1.3604169506579635 0.57919607125222672 31.132526197005063 2.4296608306467533
leaf_count=911 57 89 914 70 30 642 29 1170 66 36 38 134 748 40 30 180 34 70 1271 42 83 33 26 523 32 818 24 54 15 1150 29
internal_value=-3.40895e-10 -0.0209995 0.018251 0.0216579 -0.0295064 0.0179632 0.0052926 -0.0213535 0.0244843 0.0294353 0.035902 -0.0431316 -0.0358664 0.0243141 -0.0041608 -0.000987884 0.049639 0.0203726 -0.0181539 -0.0238513 -0.0257783 0.0103578 -0.00377172 -0.0189456 0.0253227 -0.038638 -0.0371647 -0.00720191 -0.0365082 -0.0392844 0.0136815
internal_weight=465.122 216.276 248.846 227.966 182.199 201.375 67.2354 113.99 34.077 29.0552 23.6351 68.2086 20.591 134.14 5.02183 47.4666 26.5907 19.7688 93.3993 45.5521 43.0213 12.4218 6.61565 20.8803 130.136 52.4973 50.2182 3.31805 1.93961 46.9002 4.34603
internal_count=9388 6709 2679 2099 6450 1995 1009 3344 259 163 127 3106 778 986 96 822 104 187 2566 1396 1354 158 88 580 946 2195 2061 93 69 1968 55
is_linear=0
shrinkage=0.05


Tree=7
num_leaves=32
num_cat=0
split_feature=5 0 2 0 5 1 2 4 2 2 4 5 2 5 5 5 5 2 2 1 2 1 1 5 1 5 1 5 5 5 5
split_gain=60.8838 29.9703 11.1809 7.88974 7.42335 6.51268 2.41127 1.89574 1.75363 1.64284 1.74635 1.63652 1.55799 1.41038 3.71038 1.87594 1.9856 1.67889 1.33103 1.16852 1.16623 1.08854 1.03493 1.0803 1.03098 0.947737 0.938541 2.08905 1.57129 1.23242 0.937041
threshold=15.500000000000002 1.0000000180025095e-35 1.0000000180025095e-35 1.0000000180025095e-35 7.5000000000000009 1.5000000000000002 2.5000000000000004 1.0000000180025095e-35 1.0000000180025095e-35 1.0000000180025095e-35 1.0000000180025095e-35 3.5000000000000004 1.0000000180025095e-35 17.500000000000004 16.500000000000004 19.500000000000004 21.500000000000004 1.5000000000000002 2.5000000000000004 4.5000000000000009 1.5000000000000002 1.5000000000000002 1.5000000000000002 27.500000000000004 3.5000000000000004 32.500000000000007 2.5000000000000004 6.5000000000000009 12.500000000000002 7.5000000000000009 22.500000000000004
decision_type=2 2 2 2 2 2 2 2 2 2 2 2 2 2 2 2 2 2 2 2 2 2 2 2 2 2 2 2 2 2 2
left_child=1 4 22 5 12 13 7 24 11 10 -6 -3 -1 14 20 -15 17 -17 -18 -9 -4 -11 23 -2 -7 -5 28 -28 29 -10 -21
right_child=2 8 3 25 9 6 -8 19 26 21 -12 -13 -14 15 -16 16 18 -19 -20 30 -22 -23 -24 -25 -26 -27 27 -29 -30 -31 -32
leaf_value=-0.055687030590252484 -0.016444035964824754 0.039319692133206713 0.031817550862275577 0.052681975808148367 0.010941520028134751 0.010832927526643166 0.047308981279346712 0.00061020392875555231 0.028382936826673696 -0.012095737553011623 -0.038063357916770464 -0.018316438960246179 -0.03720218390882344 0.0086756078208308929 0.060044855789271184 0.025031994935553428 0.019052207756137619 0.055405450673917681 0.051580200014264714 -0.047094404940466711 0.00028353492067221121 -0.023012169678914125 -0.031512364602303965 0.021283170092555724 0.044108486605864701 0.031673767490026435 -0.043876724422411098 0.029677632274096602 0.0073249350787758169 0.054604035961138234 -0.006011945419334498
leaf_weight=14.762446765787898 9.2267965809442121 1.7510588355362404 6.2790100872516632 17.995247110724453 2.0223321113735464 7.8642484117299301 3.0809269566088906 46.002572253346443 10.484567791223535 47.916856584139168 17.99237714568153 4.1517271511256695 50.034645121078938 23.632842499762774 8.7722029238939285 9.7505318261682987 64.531837206333876 8.5294667668640614 3.3060573153197756 2.4085566196590653 5.5004606246948242 43.628427627962083 8.6731128739193064 2.3886889647692433 3.3064544759690762 7.6509359776973715 1.3576300041750062 3.3405831418931484 4.7527656555175772 7.8262250274419776 3.2756706122308969
leaf_count=911 252 11 43 70 30 64 39 692 50 1170 748 63 2195 299 31 55 472 37 19 84 30 1396 286 42 40 34 36 38 30 31 90
internal_value=-1.37784e-10 -0.0197011 0.0170853 0.020334 -0.0279534 0.0169256 0.00412111 0.00200428 0.0235297 -0.0201353 -0.0331118 -0.00121871 -0.0414135 0.0234052 0.0354262 0.0211542 0.0245786 0.0392043 0.0206374 -0.00203247 0.0170926 -0.0172983 -0.0184437 -0.00868555 0.0206823 0.0464147 0.0287918 0.00842283 0.0329411 0.0395901 -0.0234197
internal_weight=452.197 210.022 242.176 221.887 176.357 196.241 65.9384 62.8575 33.6646 111.56 20.0147 5.90279 64.7971 130.302 20.5517 109.751 86.1179 18.28 67.8379 51.6868 11.7795 91.5453 20.2886 11.6155 11.1707 25.6462 27.7618 4.69821 23.0636 18.3108 5.68423
internal_count=9388 6709 2679 2099 6450 1995 1009 970 259 3344 778 74 3106 986 104 882 583 92 491 866 73 2566 580 294 104 104 185 74 111 81 174
is_linear=0
shrinkage=0.05


Tree=8
num_leaves=32
num_cat=0
split_feature=5 0 2 0 5 1 5 1 5 1 5 5 5 2 5 4 2 1 5 1 5 5 4 2 2 1 5 5 5 1 1
split_gain=56.5166 22.5192 9.47499 7.29664 6.84273 6.23262 2.4321 2.07887 1.85317 1.69495 1.58751 1.99065 1.79703 2.09548 1.76093 1.45165 1.37002 1.35036 1.34382 1.41108 1.34153 1.26405 1.73003 1.23339 1.1467 1.11548 1.08509 2.37338 1.0186 1.13348 0.989046
threshold=15.500000000000002 1.0000000180025095e-35 1.0000000180025095e-35 1.0000000180025095e-35 6.5000000000000009 1.5000000000000002 25.500000000000004 1.5000000000000002 5.5000000000000009 1.5000000000000002 17.500000000000004 19.500000000000004 20.500000000000004 2.5000000000000004 16.500000000000004 1.0000000180025095e-35 1.5000000000000002 5.5000000000000009 22.500000000000004 1.5000000000000002 19.500000000000004 12.500000000000002 1.0000000180025095e-35 1.0000000180025095e-35 1.0000000180025095e-35 9.5000000000000018 10.500000000000002 9.5000000000000018 10.500000000000002 5.5000000000000009 2.5000000000000004
decision_type=2 2 2 2 2 2 2 2 2 2 2 2 2 2 2 2 2 2 2 2 2 2 2 2 2 2 2 2 2 2 2
left_child=1 4 15 5 24 10 17 -3 -9 -6 14 -12 16 -14 -4 -2 -13 -7 19 20 -17 23 -23 -11 -1 28 27 -10 29 -25 -28
right_child=2 7 3 -5 9 6 -8 8 26 21 11 12 13 -15 -16 18 -18 -19 -20 -21 -22 22 -24 25 -26 -27 30 -29 -30 -31 -32
leaf_value=-0.055370179918787003 0.017414032979229284 0.029771499242753182 0.023255621848476994 0.045640019545406779 -0.014026946052325726 -9.3515967834232653e-05 0.019161625162997818 -0.038103655083016504 0.0047638773959091645 -0.046607565170281612 0.0072800909632076902 0.027031768225582915 0.019073247859556976 0.0567319486611403 0.053323023624147252 -0.010698770555742749 0.062289874265869377 -0.036181896415794043 -0.0041818298504330154 -0.059268169917244623 -0.069613341645700696 0.038486056991687022 -0.018921912324414113 -0.019503870183983439 -0.037665921157407189 0.017126929380991116 -0.041532396904740136 0.064240406521705248 -0.044162548059121787 -0.051428093314151484 0.015204860503904098
leaf_weight=11.862900114152579 2.7058367971330908 18.745712455362082 11.829403668642044 23.832228325307369 59.935085586737841 44.591495418921113 18.564471425488591 2.1858629435300818 5.9207476042211038 9.059916088357566 23.007413741201162 6.2665933892130834 70.70496841147542 3.8975874446332446 8.2766698449850082 5.9383840896189231 4.91695736348629 2.7521043261513105 6.5311768967658272 3.4507664460688829 1.1540390234440563 1.4528785813599814 13.567869211081414 23.755701257381592 39.935880434233695 1.4419565023854364 1.5376500301063054 2.3403291273862123 7.4222637498751274 3.1490008742548516 1.5347662521526215
leaf_count=791 44 113 73 104 1678 724 187 34 55 411 299 38 501 21 31 159 23 98 179 157 41 22 442 791 1873 24 16 15 289 129 26
internal_value=-7.3176e-11 -0.01933 0.0165271 0.0195252 -0.0265365 0.0163303 0.00382319 0.0189933 0.00404854 -0.0199704 0.0227254 0.02034 0.0238426 0.0210407 0.0356329 -0.0166117 0.0425333 -0.00219135 -0.0220039 -0.0330441 -0.020285 -0.0259223 -0.0133691 -0.0301285 -0.0417205 -0.0259545 0.0121783 0.0216133 -0.0277642 -0.0232404 -0.0131904
internal_weight=442.269 203.849 238.42 218.64 171.583 194.808 65.9081 32.2651 13.5194 119.785 128.9 108.794 85.7861 74.6026 20.1061 19.7802 11.1836 47.3436 17.0744 10.5432 7.09242 59.8496 15.0207 44.8288 51.7988 35.7689 11.3335 8.26108 34.327 26.9047 3.07242
internal_count=9388 6709 2679 2099 6450 1995 1009 259 146 3786 986 882 583 522 104 580 61 822 536 357 200 2108 464 1644 2664 1233 112 70 1209 920 42
is_linear=0
shrinkage=0.05


Tree=9
num_leaves=32
num_cat=0
split_feature=5 0 2 5 0 1 2 5 2 1 1 4 1 5 5 5 5 2 5 4 2 2 1 4 5 5 5 5 1 5 5
split_gain=48.7175 22.3598 8.42136 6.14833 6.1242 5.48683 2.37009 1.73441 2.10458 1.72691 1.61661 1.41822 1.40438 1.35128 1.79635 1.38606 1.4452 1.36557 1.24721 1.45984 1.14112 1.10597 1.08519 1.06816 1.06782 1.46514 1.06006 1.05505 1.2933 1.10271 1.02484
threshold=15.500000000000002 1.0000000180025095e-35 1.0000000180025095e-35 6.5000000000000009 1.0000000180025095e-35 1.5000000000000002 2.5000000000000004 38.500000000000007 2.5000000000000004 1.5000000000000002 2.5000000000000004 1.0000000180025095e-35 4.5000000000000009 17.500000000000004 16.500000000000004 19.500000000000004 20.500000000000004 1.5000000000000002 12.500000000000002 1.0000000180025095e-35 1.0000000180025095e-35 1.5000000000000002 4.5000000000000009 1.0000000180025095e-35 12.500000000000002 7.5000000000000009 19.500000000000004 22.500000000000004 1.5000000000000002 18.500000000000004 32.500000000000007
decision_type=2 2 2 2 2 2 2 2 2 2 2 2 2 2 2 2 2 2 2 2 2 2 2 2 2 2 2 2 2 2 2
left_child=1 3 23 20 5 7 11 8 13 -5 24 26 -12 14 17 -15 21 -4 -11 -20 -1 -17 -13 -2 25 -3 -7 28 29 -25 -6
right_child=2 10 4 9 30 6 -8 -9 -10 18 12 22 -14 15 -16 16 -18 -19 19 -21 -22 -23 -24 27 -26 -27 -28 -29 -30 -31 -32
leaf_value=-0.053892237946877156 0.014310719567867371 0.019681984934678945 0.031702227715476622 -0.013146852249502945 0.050022959814390804 -0.013940256319318046 0.044105269156174416 -0.013923929814213656 0.053742121979827806 -0.029550136291025649 0.0095868647508420141 0.00034892162021158757 -0.052372157303078308 0.0074483253155754438 0.051399106600358097 0.024938914797111824 0.019023795781041936 -0.0061623256759438198 0.033358855402770955 -0.018083805805505154 -0.035886188846419184 0.056787003718501088 -0.023354568203740649 0.0015539300640894059 0.0045275846981984134 0.046464794554601237 0.02599537915484303 -0.0052053684603885972 -0.057051275611354237 -0.038788305764637071 0.027100237003311857
leaf_weight=11.379488385748116 2.4519012197852161 12.07969976030291 7.9967398568987864 60.184183123055845 15.655439998954536 2.0737928161397567 3.4111545365303746 3.3703991696238509 5.1429580338299266 43.150164454709738 4.1207661498337975 45.137472840957344 1.1754440376535056 21.413722181692719 7.9502346962690345 6.4161546938121301 66.561335291713476 3.3908189386129379 1.5355711774900545 13.534918306861071 38.802589864470065 4.7396177798509598 5.4070165846496812 3.3688524896278995 4.6556245498359194 8.8454680033028108 8.3618405871093255 6.4014538908377281 3.2615752434358001 3.4068710161373019 7.0816213116049758
leaf_count=791 44 81 43 1678 70 44 39 40 32 1644 66 692 30 289 31 38 463 27 22 442 1873 23 174 81 36 46 60 179 157 119 34
internal_value=1.15213e-10 -0.0181378 0.0155271 -0.0253021 0.0183506 0.0154358 0.00354677 0.0214647 0.0224296 -0.0190859 0.0209793 0.00127797 -0.00416436 0.0210702 0.0331607 0.0187117 0.0218151 0.0204275 -0.0252253 -0.0128422 -0.0399693 0.0384698 -0.00218677 -0.0164749 0.026185 0.0310036 0.0180593 -0.0210667 -0.0311826 -0.0187304 0.0428835
internal_weight=432.465 199.464 233.001 168.587 214.11 191.373 64.3913 126.982 123.612 118.405 30.877 60.9801 5.29621 118.469 19.3378 99.1308 77.7171 11.3876 58.2207 15.0705 50.1821 11.1558 50.5445 18.8907 25.5808 20.9252 10.4356 16.4388 10.0373 6.77572 22.7371
internal_count=9388 6709 2679 6450 2099 1995 1009 986 946 3786 259 970 96 914 101 813 524 70 2108 464 2664 61 866 580 163 127 104 536 357 200 104
is_linear=0
shrinkage=0.05


Tree=10
num_leaves=32
num_cat=0
split_feature=5 0 2 0 5 1 5 1 5 2 2 2 5 2 5 1 4 5 2 1 1 5 5 5 1 2 5 5 1 1 1
split_gain=42.9084 15.946 7.12376 5.98632 5.44187 4.67667 2.53249 2.09523 1.72301 1.52885 1.42385 1.41862 1.52928 1.36774 1.36149 1.35131 1.22639 2.52524 1.15863 1.11861 1.09172 1.00241 1.31251 0.947021 0.930449 0.922646 0.916742 0.780931 0.912096 1.77266 0.77143
threshold=14.500000000000002 1.0000000180025095e-35 1.0000000180025095e-35 1.0000000180025095e-35 6.5000000000000009 1.5000000000000002 25.500000000000004 2.5000000000000004 15.500000000000002 1.0000000180025095e-35 1.0000000180025095e-35 2.5000000000000004 17.500000000000004 1.5000000000000002 16.500000000000004 4.5000000000000009 1.0000000180025095e-35 12.500000000000002 1.0000000180025095e-35 1.5000000000000002 4.5000000000000009 19.500000000000004 20.500000000000004 17.500000000000004 1.0000000180025095e-35 1.5000000000000002 13.500000000000002 10.500000000000002 8.5000000000000018 5.5000000000000009 3.5000000000000004
decision_type=2 2 2 2 2 2 2 2 2 2 2 2 2 2 2 2 2 2 2 2 2 2 2 2 2 2 2 2 2 2 2
left_child=1 4 23 5 18 8 20 10 13 16 -3 12 14 -4 24 -9 17 -6 -1 -11 30 -14 25 -2 -10 -23 27 28 29 -21 -7
right_child=2 7 3 -5 9 6 -8 15 11 19 -12 -13 21 -15 -16 -17 -18 -19 -20 26 -22 22 -24 -25 -26 -27 -28 -29 -30 -31 -32
leaf_value=-0.052209509771676148 -0.058867908610550725 -0.00048094024247880658 0.0024948192520359222 0.039786155646169781 -0.055469212309382301 -0.003053439384478438 0.019131254019683613 0.0031629728923560779 0.039879668520852514 -0.0096942932680651253 0.030148517741675929 0.046254654129182837 0.0072859148659131 -0.078291108141413532 0.048773135719043681 -0.056300078071414829 -0.03423178382590894 0.045530554814292107 -0.033662615768316077 -0.016838835981471092 -0.023349575014557079 0.023378583156275414 0.016911741545102409 -0.012471449308258447 0.0087822545910635971 0.053334150861697585 0.00029877164439948243 -0.03430972730580157 0.017578208294966306 -0.063190732712094577 0.014652946881012943
leaf_weight=10.837010049261151 1.1737784030847276 4.8128574592992726 1.7739457190036767 25.093107264488935 1.0724092177115407 35.9228221680969 18.175525917671621 3.7488353038206688 3.920784395188095 47.99843815760687 17.927757220342755 5.0933116115629664 21.408246215432882 0.74352653557434667 7.6167005822062483 1.2822231622412799 18.754924403969198 1.4633557759225368 37.764510319568217 22.763135280925788 5.6714342087507239 6.1584624387323839 66.353789251297712 17.460394853260368 6.2234096452593803 4.4121096059679985 4.5855560917407265 11.413396004121749 1.62851973902434 2.2681990582495919 7.4224657174199811
leaf_count=791 71 52 40 119 52 567 187 64 27 1220 99 34 289 32 31 29 816 16 1873 791 206 38 501 523 43 23 123 454 42 106 129
internal_value=-2.02804e-10 -0.0177761 0.014268 0.016827 -0.0238273 0.0138091 0.00319037 0.0172063 0.0195768 -0.0177619 0.0236661 0.0204273 0.0192942 -0.021365 0.0327971 -0.0119919 -0.0298193 0.00281639 -0.0377981 -0.0149303 -0.00272056 0.0168553 0.0195185 -0.015394 0.0208016 0.0358819 -0.0208217 -0.0233654 -0.01868 -0.021039 -2.13902e-05
internal_weight=422.945 188.321 234.624 215.99 160.549 190.897 67.1922 27.7717 123.704 111.948 22.7406 121.187 116.094 2.51747 17.7609 5.03106 21.2907 2.53576 48.6015 90.6572 49.0167 98.3326 76.9244 18.6342 10.1442 10.5706 42.6588 38.0733 26.6599 25.0313 43.3453
internal_count=9388 6528 2860 2266 6284 2147 1089 244 1058 3620 151 986 952 72 101 93 884 68 2664 2736 902 851 562 594 70 61 1516 1393 939 897 696
is_linear=0
shrinkage=0.05


Tree=11
num_leaves=32
num_cat=0
split_feature=5 0 2 0 5 1 2 2 2 5 4 5 4 5 5 2 2 4 5 1 5 1 5 1 1 1 2 2 5 5 5
split_gain=37.9994 16.1556 6.51846 5.56254 5.27238 3.6262 2.53973 2.14695 1.3434 1.2823 1.27235 1.19255 1.1002 2.02617 1.07306 1.52191 1.00207 0.976011 0.904417 1.09002 0.877526 0.869203 0.868409 0.863909 0.799095 1.43475 1.82629 0.976604 0.798372 0.737524 0.715895
threshold=15.500000000000002 1.0000000180025095e-35 1.0000000180025095e-35 1.0000000180025095e-35 6.5000000000000009 1.5000000000000002 2.5000000000000004 1.0000000180025095e-35 1.0000000180025095e-35 17.500000000000004 1.0000000180025095e-35 16.500000000000004 1.0000000180025095e-35 12.500000000000002 19.500000000000004 2.5000000000000004 1.0000000180025095e-35 1.0000000180025095e-35 22.500000000000004 1.5000000000000002 18.500000000000004 1.0000000180025095e-35 32.500000000000007 4.5000000000000009 3.5000000000000004 2.5000000000000004 1.5000000000000002 1.5000000000000002 20.500000000000004 1.0000000180025095e-35 32.500000000000007
decision_type=2 2 2 2 2 2 2 2 2 2 2 2 2 2 2 2 2 2 2 2 2 2 2 2 2 2 2 2 2 2 2
left_child=1 4 17 5 16 9 10 -3 12 11 -7 -4 13 -6 -11 28 -1 -2 19 20 -19 -10 -5 24 25 -12 -27 -26 -16 -18 -25
right_child=2 7 3 22 8 6 -8 -9 21 14 23 -13 -14 -15 15 -17 29 18 -20 -21 -22 -23 -24 30 27 26 -28 -29 -30 -31 -32
leaf_value=-0.050354640090054782 0.015439998973573383 -0.011285844712096465 0.020675741611942217 0.047893412120297504 -0.051626545044605912 0.017523345791479475 0.044152835070424133 0.023504501337025419 -0.0051593191320011703 0.0071389199835941199 0.0040401804641160719 0.046899714900777073 -0.032369022593430934 0.039549620284760043 0.030813465816876863 0.050438778284901079 -0.075702105588531521 0.0012999270211536979 -0.0044174292542773818 -0.053687808332200986 -0.035793816137260785 -0.016706640478139755 0.026186318776898643 -0.02972831476151043 -0.00094307808277201198 -0.003309086521413688 -0.046397053094061176 0.034549472535601325 0.015918641094066623 -0.031515268695184395 0.020705057797229955
leaf_weight=10.296625510556622 2.338771279901267 5.3923400901258018 10.745039537549021 14.435904987156393 1.0212758411653367 10.158040232025085 3.7063900455832473 24.964576452970505 20.851216180250049 22.476883307099342 23.674804087728262 7.2675633430480948 18.511309640947729 1.5106255263090134 10.429547432810066 3.7880729101598254 0.97015688009560008 3.1878496529534441 6.2306520976126203 3.0270194406621158 3.1897715525701642 74.607920334208757 6.767368432134389 4.2624134356155983 4.3796197716146699 7.311346707865594 3.7056520208716393 3.4766935594379902 65.476653095334768 35.492044674698263 0.8427700176835059
leaf_count=791 44 74 73 70 52 104 39 185 496 299 357 31 830 16 61 21 58 81 179 157 119 2392 34 161 76 130 77 52 501 1815 13
internal_value=6.93161e-11 -0.0161697 0.014174 0.0167305 -0.0223976 0.0139025 0.00402971 0.0173246 -0.0167052 0.018956 0.00145734 0.0312564 -0.0281408 0.00277251 0.0167875 0.0195087 -0.0365806 -0.0146854 -0.0191917 -0.0289798 -0.0172525 -0.0141843 0.0409652 -0.00196737 0.000364596 -0.00289621 -0.0178021 0.0147636 0.0179652 -0.032691 -0.0214027
internal_weight=414.497 193.618 220.879 202.905 163.261 181.701 61.5177 30.3569 116.502 120.184 57.8113 18.0126 21.0432 2.5319 102.171 79.6943 46.7588 17.9741 15.6353 9.40464 6.37762 95.4591 21.2033 47.6533 42.5481 34.6918 11.017 7.85631 75.9062 36.4622 5.10518
internal_count=9388 6709 2679 2099 6450 1995 1009 259 3786 986 970 104 898 68 882 583 2664 580 536 357 200 2888 104 866 692 564 207 128 562 1873 174
is_linear=0
shrinkage=0.05


Tree=12
num_leaves=32
num_cat=0
split_feature=5 0 0 5 2 1 5 5 1 1 2 1 4 5 5 5 2 5 5 2 5 2 5 5 5 2 4 1 5 1 1
split_gain=33.2303 13.9047 5.86203 5.41477 4.73958 2.95887 2.06321 2.00447 1.46788 1.72634 1.38796 0.968526 0.942383 1.5001 0.896621 1.26355 1.27446 1.17072 0.889876 0.938315 0.876481 0.871837 0.815532 1.63974 1.58796 0.751395 0.68831 0.671456 0.780837 0.659365 2.08178
threshold=15.500000000000002 1.0000000180025095e-35 1.0000000180025095e-35 6.5000000000000009 1.0000000180025095e-35 1.5000000000000002 25.500000000000004 38.500000000000007 2.5000000000000004 4.5000000000000009 1.0000000180025095e-35 7.5000000000000009 1.0000000180025095e-35 12.500000000000002 17.500000000000004 19.500000000000004 2.5000000000000004 16.500000000000004 20.500000000000004 1.5000000000000002 17.500000000000004 1.0000000180025095e-35 12.500000000000002 7.5000000000000009 6.5000000000000009 1.5000000000000002 1.0000000180025095e-35 1.5000000000000002 22.500000000000004 8.5000000000000018 6.5000000000000009
decision_type=2 2 2 2 2 2 2 2 2 2 2 2 2 2 2 2 2 2 2 2 2 2 2 2 2 2 2 2 2 2 2
left_child=1 3 4 21 20 7 11 14 22 -10 12 -7 13 -5 17 -16 18 25 19 -17 -2 -1 23 24 -3 -6 -22 -28 -29 30 -12
right_child=2 8 -4 10 5 6 -8 -9 9 -11 29 -13 -14 -15 15 16 -18 -19 -20 -21 26 -23 -24 -25 -26 -27 27 28 -30 -31 -32
leaf_value=-0.049026465715117512 -0.063542293692247606 0.024631046241893894 0.038172972245947699 -0.047151638024727757 0.027718909814158418 -0.00083909458511449264 0.018218599590277221 -0.020424035388057787 0.0081437158049470822 -0.059436440775998335 -0.012484039275798905 -0.048211912784149456 -0.031310419616563175 0.031525222595861345 0.0062447062456264966 0.019315760534883493 0.049411733141948549 0.044962049055986643 0.016269834176999395 0.050414366683513318 0.013694943773023369 -0.032169735221894612 0.0018745513521320292 0.04334286504785486 -0.017345922502171891 -0.0010666401017353222 -0.0074015877229931196 -0.050641109995852286 -0.012333580801630667 0.011821854703559011 -0.06724975461831767
leaf_weight=9.8116035577841085 0.8605176573619272 8.9027969110757201 21.407245257869363 0.986712018959227 7.1066809110343474 40.862908550538123 17.814546085894108 3.3688132129609576 4.0308738546445957 1.2343771457672117 90.119654177688062 1.1081893108785141 17.782132596243173 1.5695993341505527 21.850571034476161 5.7859097719192487 3.4865571185946456 7.0042864084243766 62.940534476190805 4.1762868501245975 2.2839684020727899 35.15197435952723 4.3703087754547587 7.9353991113603106 3.0162890367209902 3.328991025686264 8.8237247560173255 2.4495164998807004 2.9112332137301564 2.636572513729333 1.7692977059632529
leaf_count=791 55 63 123 52 43 781 187 40 66 30 2723 41 830 16 299 38 19 31 463 23 43 1873 36 46 18 30 244 125 94 62 103
internal_value=1.06548e-10 -0.0153181 0.0133289 -0.0211387 0.0106177 0.013037 0.00396149 0.0175947 0.0162278 -0.00769967 -0.0153806 -0.00208991 -0.0272297 0.0011567 0.0187019 0.0168472 0.0198799 0.0291495 0.0184676 0.0323527 -0.0143495 -0.0358481 0.0214285 0.0257326 0.0140082 0.0185363 -0.0117791 -0.0158809 -0.0298376 -0.0128312 -0.0135385
internal_weight=406.888 189.318 217.57 159.828 196.163 178.834 59.7856 119.049 29.49 5.26525 114.864 41.9711 20.3384 2.55631 115.68 98.2399 76.3893 17.44 72.9027 9.9622 17.329 44.9636 24.2248 19.8545 11.9191 10.4357 16.4684 14.1845 5.36075 94.5255 91.889
internal_count=9388 6709 2679 6450 2556 1995 1009 986 259 96 3786 822 898 68 946 842 543 104 524 61 561 2664 163 127 81 73 506 463 219 2888 2826
is_linear=0
shrinkage=0.05


Tree=13
num_leaves=32
num_cat=0
split_feature=5 0 0 5 2 1 2 5 5 5 5 1 5 1 5 5 1 1 5 5 2 2 4 5 1 5 1 5 1 2 2
split_gain=30.2862 12.1608 5.94427 4.47714 4.0936 2.92095 1.94411 2.3731 1.82788 1.58376 2.17706 1.26307 1.06053 1.05506 0.988042 1.02421 0.969902 0.855486 0.83681 0.958181 1.02704 0.826836 0.743207 0.75599 0.677253 0.644938 0.617575 0.827603 0.820713 0.993323 0.641559
threshold=14.500000000000002 1.0000000180025095e-35 1.0000000180025095e-35 6.5000000000000009 1.0000000180025095e-35 1.5000000000000002 1.0000000180025095e-35 9.5000000000000018 25.500000000000004 8.5000000000000018 3.5000000000000004 1.5000000000000002 15.500000000000002 2.5000000000000004 17.500000000000004 16.500000000000004 11.500000000000002 4.5000000000000009 19.500000000000004 38.500000000000007 2.5000000000000004 1.0000000180025095e-35 1.0000000180025095e-35 22.500000000000004 1.5000000000000002 1.0000000180025095e-35 3.5000000000000004 23.500000000000004 2.5000000000000004 1.5000000000000002 1.5000000000000002
decision_type=2 2 2 2 2 2 2 2 2 2 2 2 2 2 2 2 2 2 2 2 2 2 2 2 2 2 2 2 2 2 2
left_child=1 3 4 21 22 12 7 9 17 10 -3 -5 -6 -8 15 -14 -13 26 -16 20 -20 -1 -2 24 -24 -23 28 -28 30 -30 -7
right_child=2 6 -4 11 5 8 13 -9 -10 -11 -12 16 14 -15 18 -17 -18 -19 19 -21 -22 25 23 -25 -26 -27 27 -29 29 -31 -32
leaf_value=-0.047460269568209507 0.012833951498727389 0.035628803583190601 0.035844557140367293 -0.010114040237717855 -0.016672518722754361 -0.003646163635897327 0.028364175893381711 -0.069542097285985482 0.016423910373663468 0.047475694971634987 -0.063318663752862034 -0.021617494180560578 0.017959543253663782 -0.00053662843001793092 0.00639779166191011 0.043203843902631288 0.046806559457237731 -0.021314320401382592 0.017225186189766095 -0.012040900229348471 0.045495301970329485 -0.073016519225743856 -0.0181329585221435 -0.0044112317161896361 -0.048254160520076639 -0.02961569424089773 0.022857977187508753 -0.020391106355381865 -0.002986900468075098 -0.034471964128156715 0.014500104860125641
leaf_weight=9.4310043547302467 2.2560443161055455 1.0203196434304147 23.90557246375829 55.588234597817063 2.4002598766237488 13.508569186553361 16.973737807944421 1.3074924061074851 17.704986292868853 1.5480364076793196 1.221326404251158 51.867091136053205 9.9331464245915431 3.8797091110609463 21.941245701164007 6.74713061004877 0.52312861382961173 5.3593790158629409 72.443315094336867 2.6620328892022362 3.3618026897311202 0.87860819092020292 6.1071133837103826 6.0831798734143385 2.6873110742308199 33.231460028793663 5.2915905322879544 1.3984646834433077 7.215015718713401 3.8374572852626443 7.6174608161672941
leaf_count=791 44 11 138 1599 72 217 99 18 187 12 33 2016 73 71 299 31 5 206 524 40 19 58 198 174 159 1815 98 31 136 94 120
internal_value=-1.58527e-10 -0.0154051 0.0122895 -0.0208217 0.00945357 0.0116599 0.0162213 -0.0114596 0.00284754 0.00857964 -0.0182812 -0.0153639 0.0162274 0.0229873 0.0169018 0.0281708 -0.0209343 -0.00258724 0.0150298 0.0174435 0.0184789 -0.0343566 -0.013908 -0.0179631 -0.0273371 -0.0307336 -5.06536e-06 0.0138173 -0.00287881 -0.0139186 0.00289688
internal_weight=399.931 177.47 222.461 151.52 198.556 181.422 25.9506 5.09717 61.9329 3.78968 2.24165 107.978 119.489 20.8534 117.089 16.6803 52.3902 44.2279 100.408 78.4672 75.8051 43.5411 17.1336 14.8776 8.79442 34.1101 38.8686 6.69006 32.1785 11.0525 21.126
internal_count=9388 6528 2860 6284 2722 2147 244 74 1089 56 44 3620 1058 170 986 104 2021 902 882 583 543 2664 575 531 357 1873 696 129 567 230 337
is_linear=0
shrinkage=0.05


Tree=14
num_leaves=32
num_cat=0
split_feature=5 0 0 5 2 1 5 1 1 5 5 5 2 1 4 5 5 2 2 5 5 1 1 2 2 1 1 2 2 1 5
split_gain=26.2801 13.1524 4.89916 4.30875 3.74965 2.26094 1.49933 1.4176 1.19226 1.12886 1.59362 1.19988 1.08116 1.05035 1.26318 1.34795 1.21021 1.12382 1.06037 0.918444 1.17374 0.85881 1.34477 1.51674 0.836167 0.80189 1.15515 0.792602 0.767025 0.698862 0.681464
threshold=15.500000000000002 1.0000000180025095e-35 1.0000000180025095e-35 6.5000000000000009 1.0000000180025095e-35 2.5000000000000004 30.500000000000004 4.5000000000000009 2.5000000000000004 17.500000000000004 16.500000000000004 19.500000000000004 2.5000000000000004 3.5000000000000004 1.0000000180025095e-35 12.500000000000002 8.5000000000000018 1.0000000180025095e-35 1.5000000000000002 12.500000000000002 7.5000000000000009 4.5000000000000009 3.5000000000000004 1.5000000000000002 1.5000000000000002 8.5000000000000018 6.5000000000000009 1.0000000180025095e-35 1.5000000000000002 1.0000000180025095e-35 17.500000000000004
decision_type=2 2 2 2 2 2 2 2 2 2 2 2 2 2 2 2 2 2 2 2 2 2 2 2 2 2 2 2 2 2 2
left_child=1 3 4 27 30 9 21 -8 19 10 29 -11 -13 14 15 18 -15 -16 -5 20 -3 22 23 -7 -10 26 -18 -1 -24 -6 -2
right_child=2 8 -4 13 5 6 7 -9 24 11 -12 12 -14 16 17 -17 25 -19 -20 -21 -22 -23 28 -25 -26 -27 -28 -29 -30 -31 -32
leaf_value=-0.046219100126899837 -0.059651785882274766 0.016815935261567262 0.035381533503235522 -0.026847466128026881 0.030205420151987364 -0.00068327104529769403 0.0014234722135180299 0.047462092868441261 -0.017077049787381293 0.0036020437620626271 0.043251966377848158 0.01404276657218295 0.037660154541359632 -0.049037002295905553 -0.026680230748347633 0.050005292463664711 -0.018668643435243826 -0.011164491624563013 0.023050374803650787 0.0013595430590239456 0.04218920972052348 -0.024978180413804341 -0.00065462090107620396 -0.042040750723743234 0.030751442324372144 0.0060861407532088341 -0.066592050311562026 -0.029562067023431851 0.032502559857175629 0.0041827193267264485 -0.010924139587410552
leaf_weight=9.0954606847371888 0.7515501761809017 11.122539710253486 20.360768239945173 2.3426564359106115 4.060582462698223 7.4551256895065396 4.2806234676390877 2.7437998950481415 3.5810674559324971 28.394498149864376 7.7016863562166682 90.719709645025432 5.1192728020250788 4.0744149833917644 13.920452965889124 1.567254642024636 12.426386882085355 72.209442836232483 1.9517915770411489 4.2008403046056619 7.722309196367859 5.1504331566393367 3.6323320157825938 3.1550920205190778 1.2268973188474772 2.7409316739067426 1.3989925566129375 33.246667616767809 3.3554132003337145 7.0760995587334037 15.844508444890378
leaf_count=791 55 81 123 96 29 142 43 22 67 418 44 794 35 171 662 21 448 2177 50 36 46 191 77 82 29 67 94 1873 50 68 506
internal_value=5.33703e-11 -0.0138572 0.0120756 -0.0195426 0.00957073 0.0117505 -0.000785388 0.0194066 0.0177758 0.0143591 0.0257645 0.0126297 0.0153043 -0.0144308 -0.0121437 0.0103155 -0.0246242 -0.0136722 -0.0041693 0.0225007 0.0272135 -0.00702041 -0.00176467 -0.0129815 -0.00487217 -0.0186199 -0.023518 -0.0331401 0.015267 0.0136709 -0.0131308
internal_weight=392.63 182.828 209.801 154.974 189.441 172.845 29.7728 7.02442 27.8537 143.072 18.8384 124.233 95.839 112.632 91.9916 5.8617 20.6407 86.1299 4.29445 23.0457 18.8448 22.7484 17.598 10.6102 4.80796 16.5663 13.8254 42.3421 6.98775 11.1367 16.5961
internal_count=9388 6709 2679 6450 2556 1995 607 65 259 1388 141 1247 829 3786 3006 167 780 2839 146 163 127 542 351 224 96 609 542 2664 127 97 561
is_linear=0
shrinkage=0.05


Tree=15
num_leaves=32
num_cat=0
split_feature=5 0 0 5 2 1 5 5 5 1 1 2 5 5 5 2 5 5 2 5 5 1 1 2 4 1 5 5 4 1 5
split_gain=23.3292 9.93194 5.05499 3.84206 3.34666 2.15316 1.35845 1.3359 1.61011 1.65862 1.06298 1.02587 1.27344 0.911178 0.88368 0.792893 0.766885 0.909326 0.95351 0.678396 0.637841 1.31814 0.689134 1.65252 1.19236 0.635531 0.630214 0.626812 0.625026 0.614659 0.608676
threshold=14.500000000000002 1.0000000180025095e-35 1.0000000180025095e-35 7.5000000000000009 1.0000000180025095e-35 1.5000000000000002 25.500000000000004 12.500000000000002 7.5000000000000009 1.0000000180025095e-35 1.5000000000000002 1.5000000000000002 3.5000000000000004 38.500000000000007 15.500000000000002 1.0000000180025095e-35 17.500000000000004 16.500000000000004 1.5000000000000002 18.500000000000004 8.5000000000000018 1.0000000180025095e-35 1.0000000180025095e-35 1.5000000000000002 1.0000000180025095e-35 1.0000000180025095e-35 17.500000000000004 1.0000000180025095e-35 1.0000000180025095e-35 5.5000000000000009 12.500000000000002
decision_type=2 2 2 2 2 2 2 2 2 2 2 2 2 2 2 2 2 2 2 2 2 2 2 2 2 2 2 2 2 2 2
left_child=1 3 4 15 26 13 -7 8 9 -3 20 12 -11 14 -6 -1 17 18 -16 -18 21 -5 -22 -24 -25 -4 -2 -17 -8 -29 -12
right_child=2 7 25 10 5 6 28 -9 -10 11 30 -13 -14 -15 16 27 19 -19 -20 -21 22 -23 23 24 -26 -27 -28 29 -30 -31 -32
leaf_value=-0.042172781238034994 -0.053587850310155463 0.044842507044312571 0.013738519986870696 -0.028081813286782484 -0.015677350145824907 -0.0024567178669107036 0.027971501417529729 -0.022160873324733415 0.035198280506308237 0.037377916122629321 -0.02205735297696039 -0.029683351729515375 -0.0036567679044426406 -0.015715586573116416 0.026853656634852199 -0.070738075314138449 -0.0011506113722616633 0.040265707053915439 -0.0065665641209247672 0.014911253732068913 -0.0031976185534370407 0.020673990373193805 -0.025003140046182776 0.05872194442875709 -0.0038966650414173146 0.036772748894387884 -0.01088219924946337 -0.023513227961881201 0.0076218083485426582 -0.042222278980912992 -0.0083723579690236829
leaf_weight=10.641860788455231 0.91442290460691111 2.5336309783160749 3.5480042630806592 1.9616706711240102 2.3329656682908526 41.51706624776125 5.6041066646575937 2.2177733471617094 8.877527389675377 2.5962264863774163 32.818689446896315 2.3027013046666971 6.9570810105651617 2.5013884585350743 6.51981443539262 0.79603507509454985 7.0873301960527888 6.3413940221071234 3.1729057319462299 90.768531959503889 19.446744385175407 4.7261042702011764 16.230585656128824 0.85061082616448391 7.1540329260751623 19.19638232793659 15.631738129537551 34.112073640804738 11.550158617086709 5.038490400183945 10.798819672316311
leaf_count=911 69 17 25 70 72 902 29 36 71 24 1364 28 68 40 43 58 112 31 30 730 501 110 538 13 205 113 506 1826 158 311 377
internal_value=-1.01381e-10 -0.0138618 0.0108791 -0.018935 0.00826383 0.0102698 0.00243377 0.0149182 0.0184525 0.00812137 -0.0129551 0.000274056 0.0074949 0.0141422 0.0147848 -0.030045 0.0154088 0.0255447 0.0159136 0.013748 -0.00800691 0.00637285 -0.0102085 -0.0158341 0.00275748 0.0331795 -0.0132423 -0.0268141 0.0142698 -0.025921 -0.0186692
internal_weight=386.747 170.061 216.686 144.576 193.942 177.396 58.6713 25.4849 23.2672 14.3896 93.9873 11.856 9.55331 118.724 116.223 50.5885 113.89 16.0341 9.69272 97.8559 50.3697 6.68777 43.682 24.2352 8.00464 22.7444 16.5462 39.9466 17.1543 39.1506 43.6175
internal_count=9388 6528 2860 6284 2722 2147 1089 244 208 137 3178 120 92 1058 1018 3106 946 104 73 842 1437 180 1257 756 218 138 575 2195 187 2137 1741
is_linear=0
shrinkage=0.05


Tree=16
num_leaves=32
num_cat=0
split_feature=5 0 2 5 0 1 2 1 2 4 5 1 4 1 5 5 1 1 2 5 5 4 5 5 5 2 5 2 5 5 5
split_gain=21.5744 10.7158 3.75963 3.38299 3.18935 2.29465 1.57234 1.33126 1.06585 1.09537 1.03287 0.998682 0.974824 0.835399 1.06905 0.808477 0.77566 0.766165 0.733226 0.702149 0.67623 0.675819 0.674865 0.630104 0.582405 0.659933 0.576396 0.574797 0.553009 0.640286 0.548594
threshold=15.500000000000002 1.0000000180025095e-35 1.0000000180025095e-35 6.5000000000000009 1.0000000180025095e-35 1.5000000000000002 2.5000000000000004 2.5000000000000004 1.0000000180025095e-35 1.0000000180025095e-35 12.500000000000002 4.5000000000000009 1.0000000180025095e-35 1.0000000180025095e-35 5.5000000000000009 17.500000000000004 6.5000000000000009 4.5000000000000009 1.0000000180025095e-35 16.500000000000004 19.500000000000004 1.0000000180025095e-35 9.5000000000000018 18.500000000000004 38.500000000000007 2.5000000000000004 32.500000000000007 1.5000000000000002 12.500000000000002 8.5000000000000018 1.0000000180025095e-35
decision_type=2 2 2 2 2 2 2 2 2 2 2 2 2 2 2 2 2 2 2 2 2 2 2 2 2 2 2 2 2 2 2
left_child=1 3 16 18 5 15 12 13 9 10 22 -9 20 -3 -15 19 21 -14 -1 27 -7 -2 -5 -17 25 -25 -6 -4 29 -16 -20
right_child=2 7 4 8 26 6 -8 11 -10 -11 -12 -13 17 14 28 23 -18 -19 30 -21 -22 -23 -24 24 -26 -27 -28 -29 -30 -31 -32
leaf_value=-0.043606762470645939 0.018517087985760062 0.003559595578629093 0.025104818850072409 0.00012804697183088905 0.038867291605724968 -0.01151125532262387 0.03526170638978051 0.0042245214486982419 -0.011295420735553228 -0.029097753352211809 0.033831415616680252 -0.050330821992435826 -0.0002618746930782783 0.0060522943405512467 0.026525312574024615 -0.0010323260047716109 -0.065776544966225606 -0.021174022690940871 -0.069522127760300909 0.038655094794996847 0.022503099117764616 -0.012986974906155288 -0.08808908729558311 0.014160802152701175 -0.010097812995928239 0.035549021528771756 0.020098616617846968 -0.0016441618055784688 0.015723388140455253 0.052713817915662022 -0.026081476295721454
leaf_weight=8.5131686881650221 1.9268376510590339 5.2446523690596285 6.6275585517287237 0.55728773330338577 12.490301098674538 1.840284263715146 3.4579487089067689 3.8127916511148205 88.145654964260757 16.220284223789349 1.4377706255763769 1.0754886013455687 38.576480358839035 4.7019371315836933 4.5016366094350797 7.1174331363290539 0.63153406651690502 4.9408894418738774 0.74410261074081319 6.1725130639970294 7.093515919521451 14.60837725736201 0.35483319405466318 84.279920782893896 2.3591105528175822 3.7677705045789471 6.0828317850828162 2.8815538343042135 3.0964208710938683 4.8469427563250065 31.204444260336459
leaf_count=791 39 37 43 38 70 44 39 66 2888 830 16 30 692 36 36 112 24 174 58 31 60 517 14 703 40 27 34 30 27 27 1815
internal_value=-3.71977e-11 -0.0129217 0.0110043 -0.0182567 0.0130528 0.0108928 0.0026052 0.0158614 -0.013589 -0.0244757 0.00742853 -0.0077784 0.000452257 0.0210222 0.0263634 0.0149859 -0.0113929 -0.00263621 -0.0305677 0.0255232 0.0154964 -0.00931583 -0.0341902 0.0132915 0.0144192 0.0150761 0.0327204 0.0169991 0.0340373 0.0401032 -0.0270932
internal_weight=379.312 174.457 204.855 147.178 187.688 169.115 55.9091 27.2799 106.716 18.5702 2.34989 4.88828 52.4512 22.3916 17.1469 113.206 17.1667 43.5174 40.4617 15.6816 8.9338 16.5352 0.912121 97.5242 90.4068 88.0477 18.5731 9.50911 12.445 9.34858 31.9485
internal_count=9388 6709 2679 6450 2099 1995 1009 259 3786 898 68 96 970 163 126 986 580 866 2664 104 104 556 52 882 770 730 104 73 90 63 1873
is_linear=0
shrinkage=0.05


Tree=17
num_leaves=32
num_cat=0
split_feature=5 0 2 5 0 1 2 5 5 5 5 4 1 5 2 2 2 1 1 1 2 5 5 1 1 1 5 5 5 5 5
split_gain=19.7498 8.29505 3.45441 2.97065 2.57083 2.04722 1.86363 1.54328 1.31212 1.96858 1.25083 0.832015 1.21653 1.4343 1.17182 1.12243 0.78875 0.728558 0.70404 1.46847 0.598018 0.94134 0.811387 1.25492 0.715979 0.589233 0.676037 0.572269 0.750024 0.583858 0.705256
threshold=15.500000000000002 1.0000000180025095e-35 1.0000000180025095e-35 7.5000000000000009 1.0000000180025095e-35 1.5000000000000002 1.0000000180025095e-35 3.5000000000000004 9.5000000000000018 8.5000000000000018 25.500000000000004 1.0000000180025095e-35 2.5000000000000004 12.500000000000002 1.0000000180025095e-35 1.5000000000000002 1.0000000180025095e-35 4.5000000000000009 8.5000000000000018 6.5000000000000009 2.5000000000000004 2.5000000000000004 2.5000000000000004 1.5000000000000002 5.5000000000000009 1.5000000000000002 12.500000000000002 17.500000000000004 16.500000000000004 19.500000000000004 20.500000000000004
decision_type=2 2 2 2 2 2 2 2 2 2 2 2 2 2 2 2 2 2 2 2 2 2 2 2 2 2 2 2 2 2 2
left_child=1 3 -2 16 5 27 7 -3 9 -9 17 12 13 15 25 -5 -1 -7 19 -16 21 -18 -22 -24 -23 26 -13 28 -4 -29 -31
right_child=2 6 4 11 -6 10 -8 8 -10 -11 -12 14 -14 -15 18 -17 20 -19 -20 -21 22 24 23 -25 -26 -27 -28 29 -30 30 -32
leaf_value=-0.039799998818192572 -0.011067723689859855 0.031493509938516316 0.014634107768140101 -0.039328817119509113 0.030411982448381905 0.00037325216041153255 0.018952663939419464 -0.061714114840399549 -0.07301618849115922 0.029821161868530451 0.014326767145676362 -0.0079697081069679699 -0.031773135147473888 0.068303131491706068 -0.010721249278497689 0.026524842888540262 -0.049395820725212446 -0.020829451667244227 0.017747943075030078 -0.068511290063489313 0.047613388144506961 -0.020364308179622752 0.037469225245452709 -0.046326296607061959 -0.044236477129577803 -0.036204748866100735 -0.04606248556096508 0.0057588816005018587 0.037303089838409825 0.028549447757923115 0.013413262698534229
leaf_weight=10.001685904804615 16.845886857714504 1.3165889233350778 9.322257708758114 1.031753997318446 18.225902229547501 34.181232981383801 22.375713372137398 1.0379818836227064 1.2569446647539733 1.3530382607132196 16.414220095612109 5.546499004121868 1.4740285822190342 1.1551399212330582 72.867233791388571 1.7353710960596798 3.7609111226629457 4.5963705023750654 2.1026072436943641 1.116097337566315 0.64720429852604811 28.814448012970388 0.68804330378770817 1.2743115979246793 3.5251792795024803 7.3775393133983016 1.4743304955773053 21.127829261124134 5.9955013319849959 8.7045403830707055 66.407939260825515
leaf_count=911 580 11 73 45 104 642 185 33 18 12 187 247 42 15 2335 38 294 180 41 80 18 1563 22 66 232 414 87 299 31 61 522
internal_value=-1.73679e-10 -0.0124527 0.0106085 -0.0172283 0.0125826 0.0106338 0.0128037 -0.0149102 -0.0316577 -0.00991583 0.00275731 -0.01212 0.00695254 0.0215061 -0.0132575 0.00197056 -0.0272831 -0.00213994 -0.0107822 -0.0115931 -0.024049 -0.0257199 -0.000934295 -0.0169458 -0.0229665 -0.0263375 -0.015969 0.0145306 0.0235069 0.0131019 0.0151673
internal_weight=373.754 171.933 201.822 144.592 184.976 166.75 27.3403 4.96455 3.64796 2.39102 55.1918 95.8806 5.39629 3.92227 90.4843 2.76713 48.7118 38.7776 76.0859 73.9833 38.7101 36.1005 2.60956 1.96235 32.3396 14.3984 7.02083 111.558 15.3178 96.2403 75.1125
internal_count=9388 6709 2679 6450 2099 1995 259 74 63 45 1009 3344 140 98 3204 83 3106 822 2456 2415 2195 2089 106 88 1795 748 334 986 104 882 583
is_linear=0
shrinkage=0.05


Tree=18
num_leaves=32
num_cat=0
split_feature=5 0 2 5 0 1 5 1 4 2 1 5 5 2 2 5 5 5 1 2 5 5 1 1 5 2 5 5 5 1 1
split_gain=17.0286 8.79572 3.0395 2.72821 2.26793 1.77296 1.01856 0.996506 0.812261 1.12928 0.797714 1.11835 0.79339 1.24405 0.782565 0.711215 0.813177 0.675418 0.675089 0.653883 0.584973 0.568047 0.567437 0.563893 0.547152 0.540665 0.591327 0.676408 0.544483 0.50621 0.49154
threshold=15.500000000000002 1.0000000180025095e-35 1.0000000180025095e-35 7.5000000000000009 1.0000000180025095e-35 1.5000000000000002 25.500000000000004 2.5000000000000004 1.0000000180025095e-35 1.0000000180025095e-35 2.5000000000000004 12.500000000000002 3.5000000000000004 2.5000000000000004 1.5000000000000002 12.500000000000002 7.5000000000000009 3.5000000000000004 5.5000000000000009 1.5000000000000002 38.500000000000007 6.5000000000000009 7.5000000000000009 1.5000000000000002 27.500000000000004 2.5000000000000004 17.500000000000004 16.500000000000004 18.500000000000004 1.0000000180025095e-35 1.5000000000000002
decision_type=2 2 2 2 2 2 2 2 2 2 2 2 2 2 2 2 2 2 2 2 2 2 2 2 2 2 2 2 2 2 2
left_child=1 3 23 12 5 20 22 15 10 30 11 19 13 -1 21 16 17 -3 -14 -5 25 -9 -7 24 -2 26 27 29 -28 -4 -10
right_child=2 7 4 8 -6 6 -8 14 9 -11 -12 -13 18 -15 -16 -17 -18 -19 -20 -21 -22 -23 -24 -25 -26 -27 28 -29 -30 -31 -32
leaf_value=-0.042818381336363551 -0.0089833462825731555 0.033597283545105987 0.028783038991605305 -0.034148631132680081 0.028719746573770733 -0.00093502040321744625 0.012970119418901411 -0.049224390190883538 -0.016388659559975812 -0.010430802912079191 -0.02648471065396979 0.052748340565060316 -0.020600024218116689 0.025186190926462883 0.02863739572159359 -0.0002809627976440392 0.036427140724542222 0.0064309687919029456 -0.043213857254619722 0.017719125250281669 -0.011714921128540324 -0.0050979327842233611 -0.039694311491360885 -0.021480675656107374 0.019648268802217546 0.03170655732830939 -0.0016453449981201262 0.035914909890868561 0.01299788911376655 0.0043861141920266307 -0.035073771844372291
leaf_weight=10.09890255774371 7.7677665529772657 3.2951614074409097 3.5109353438019735 0.97145747393369619 17.81617995724082 37.134011914487928 16.438494719564915 1.023832879494875 6.9521580832079035 75.874943335074931 1.3318766318261621 1.4813301376998422 32.830608477350324 0.72049414925277311 1.21825690055266 3.8381229005753985 7.2091402877122155 7.4854400157928467 3.6691351344343266 1.6224944014102218 2.2376869060099116 2.5355492932721972 0.96893059695139427 6.868712550494819 2.1251177806407213 4.1971307881176463 6.8795522172003976 5.8326371163129798 82.191606261767447 5.3907821923494339 7.1289117853157222
leaf_count=821 252 21 27 45 104 781 187 29 334 2456 42 15 1996 23 29 36 46 60 266 38 40 38 41 286 42 32 110 31 703 43 414
internal_value=-1.81201e-10 -0.0116616 0.00990257 -0.0165831 0.0117731 0.00994082 0.00256735 0.0147316 -0.0117128 -0.0128442 0.00710883 0.0180878 -0.0263982 -0.0382898 -0.00595187 0.0192587 0.0234275 0.0147345 -0.0228733 -0.0017058 0.0135888 -0.0177906 -0.00192064 -0.0104746 -0.00283291 0.0141131 0.0134018 0.0226802 0.0118669 0.0140085 -0.0258485
internal_weight=368.647 169.288 199.36 142.682 182.598 164.782 54.5414 26.6055 95.3632 89.956 5.40716 4.07528 47.3191 10.8194 4.77764 21.8279 17.9897 10.7806 36.4997 2.59395 110.24 3.55938 38.1029 16.7616 9.89288 108.003 103.806 14.7344 89.0712 8.90172 14.0811
internal_count=9388 6709 2679 6450 2099 1995 1009 259 3344 3204 140 98 3106 844 96 163 127 81 2262 83 986 67 822 580 294 946 914 101 813 70 748
is_linear=0
shrinkage=0.05


Tree=19
num_leaves=32
num_cat=0
split_feature=5 0 2 5 0 1 1 2 5 1 4 2 5 1 2 2 5 5 2 1 1 5 2 5 1 5 1 1 5 5 1
split_gain=14.8625 7.47173 2.77259 2.45393 2.14997 1.58658 1.11767 1.42036 1.16673 1.4241 1.06983 1.06844 1.02509 0.93999 0.74183 0.715225 0.687608 0.829813 0.648945 0.592327 1.33027 0.551141 0.593231 1.05842 0.936018 0.660284 0.723023 0.520922 0.509632 0.498487 0.636557
threshold=15.500000000000002 1.0000000180025095e-35 1.0000000180025095e-35 7.5000000000000009 1.0000000180025095e-35 2.5000000000000004 3.5000000000000004 1.5000000000000002 30.500000000000004 4.5000000000000009 1.0000000180025095e-35 1.0000000180025095e-35 12.500000000000002 2.5000000000000004 1.0000000180025095e-35 1.5000000000000002 12.500000000000002 8.5000000000000018 1.5000000000000002 8.5000000000000018 6.5000000000000009 1.0000000180025095e-35 2.5000000000000004 2.5000000000000004 1.5000000000000002 4.5000000000000009 1.0000000180025095e-35 5.5000000000000009 23.500000000000004 11.500000000000002 1.5000000000000002
decision_type=2 2 2 2 2 2 2 2 2 2 2 2 2 2 2 2 2 2 2 2 2 2 2 2 2 2 2 2 2 2 2
left_child=1 3 -2 14 5 -4 7 -7 9 15 12 29 -5 16 -1 28 17 -3 -15 20 -13 -16 25 -24 -25 26 -23 -27 -8 30 -12
right_child=2 13 4 10 -6 6 8 -9 -10 -11 11 19 -14 18 21 -17 -18 -19 -20 -21 -22 22 23 24 -26 27 -28 -29 -30 -31 -32
leaf_value=-0.03754531331045402 -0.010366553728351437 0.014352562829073399 0.011547376434763067 -0.0082565427812618837 0.027783414487478505 -0.0026752732541599055 0.011484435636093656 -0.041165218405338537 0.029463569437306322 -0.02159794355092045 -0.0075633442367971926 -0.0098874034025484073 0.035064725868668746 -0.018319120741970524 -0.067290472134417009 0.031181171405452845 -0.0012862469199128789 0.037213196065147294 0.024538062795188664 0.015845784918072172 -0.067156232214960032 0.0020584655233460473 0.061279653520322865 0.032825808319530275 -0.041942208925708872 -0.015216554414471509 -0.036457998872320159 -0.044671038344442589 -0.029396369830962638 -0.042177836548244876 -0.032155067733246161
leaf_weight=9.4004601147025806 16.455002354457974 11.701439762488016 135.24629999883473 3.1871369155123821 17.392985455691814 9.2385462336242217 2.3872750122100101 3.236574267037212 4.3324673771858206 4.8488499498926103 5.2948851264081878 72.161055630072951 2.3891714648343623 3.3567925677634767 0.65391938574612041 3.1767447050660849 3.8182680616155258 6.0075653307139865 1.1987043758854268 2.1648462684825054 1.0284633999690402 1.3753083809278894 0.5881753740832204 0.64401580486446608 1.1958922133781014 19.853829515632246 10.681338533759115 1.6238798815757025 1.1200266703963278 3.2534401160664848 5.2313933817204088
leaf_count=911 580 89 1388 111 104 160 52 89 40 191 237 2335 29 67 58 50 36 38 29 41 80 94 10 22 66 1029 795 121 25 192 319
internal_value=-7.83677e-11 -0.010988 0.00928365 -0.0155438 0.0110703 0.0092933 -0.00146359 -0.0126612 0.00734122 -0.000969295 -0.0109415 -0.0122707 0.0103045 0.0135919 -0.025016 0.0139955 0.0179584 0.0221078 -0.00704196 -0.00992974 -0.0106921 -0.0217994 -0.0209722 0.00289329 -0.0157715 -0.0227002 -0.0320644 -0.0174435 -0.0015705 -0.0250721 -0.019785
internal_weight=364.245 166.81 197.435 140.727 180.98 163.587 28.3405 12.4751 15.8654 11.5329 94.7104 89.1341 5.57631 26.0828 46.0168 6.68405 21.5273 17.709 4.5555 75.3544 73.1895 36.6164 35.9624 2.42808 1.83991 33.5344 12.0566 21.4777 3.5073 13.7797 10.5263
internal_count=9388 6709 2679 6450 2099 1995 607 249 358 318 3344 3204 140 259 3106 127 163 127 96 2456 2415 2195 2137 98 88 2039 889 1150 77 748 556
is_linear=0
shrinkage=0.05


Tree=20
num_leaves=32
num_cat=0
split_feature=5 0 2 5 0 1 1 2 5 5 1 4 5 2 5 5 2 5 5 2 2 4 1 5 1 1 1 5 5 1 1
split_gain=13.6617 6.19503 2.50655 1.95676 1.82879 1.40715 1.15878 1.02535 0.989182 0.927479 0.994542 0.905385 0.908051 0.842267 0.81782 0.616083 1.03749 0.51737 0.492414 0.48327 0.705263 0.463639 0.529488 0.620239 0.576224 0.458518 0.428083 0.517312 0.424933 1.24549 1.18114
threshold=14.500000000000002 1.0000000180025095e-35 1.0000000180025095e-35 7.5000000000000009 1.0000000180025095e-35 1.5000000000000002 2.5000000000000004 2.5000000000000004 3.5000000000000004 2.5000000000000004 1.5000000000000002 1.0000000180025095e-35 12.500000000000002 1.0000000180025095e-35 25.500000000000004 15.500000000000002 1.5000000000000002 38.500000000000007 32.500000000000007 1.5000000000000002 1.0000000180025095e-35 1.0000000180025095e-35 1.5000000000000002 22.500000000000004 4.5000000000000009 5.5000000000000009 1.5000000000000002 12.500000000000002 9.5000000000000018 3.5000000000000004 8.5000000000000018
decision_type=2 2 2 2 2 2 2 2 2 2 2 2 2 2 2 2 2 2 2 2 2 2 2 2 2 2 2 2 2 2 2
left_child=1 3 21 7 5 15 19 8 -1 -9 -11 12 -5 26 -7 16 -4 -17 -16 20 -3 -2 -23 -24 -25 -10 27 -13 29 -15 -31
right_child=2 6 4 11 -6 14 -8 9 25 10 -12 13 -14 28 18 17 -18 -19 -20 -21 -22 22 23 24 -26 -27 -28 -29 -30 30 -32
leaf_value=-0.040181386933973752 0.012204414325741555 0.0019387516656400449 0.006212149208547302 -0.0087416623399367895 0.024484664560509656 -0.0018182964391888297 -0.011140002692302543 0.047986331981495531 -0.019766259853695286 0.033605544802959166 -0.042847152166683229 -0.008254465493345027 0.032240486849323478 0.00053278502696655445 0.018562878974251552 0.012735403537918641 -0.0705839866315882 -0.011735164077098728 0.0007466113658211029 -0.00050028683860408197 0.027098012123639034 -0.0060789686011448177 -0.043474033211602925 -0.023104341379385718 0.029283118952800682 -0.0401570079860376 -0.033110034735936641 -0.043900325432683664 -0.012797478261797791 -0.045499868699868329 0.030629057591028144
leaf_weight=9.2190784262493235 2.0272850738838324 3.5928758392110511 1.6588528919965022 3.1914283009245983 19.903190325945616 40.106106389779598 4.1599289402365676 0.88634151965379659 29.851941374829039 0.6776976529508828 1.1425261809490619 5.3742697881534678 2.3446506229229271 19.181495859287683 9.7720971228554863 107.0811026757583 0.59845190774649371 2.2044625990092745 6.4302296787500373 2.9759381692856541 12.394679009914398 9.1793835889548046 2.5804252359084794 1.9704351429827514 0.71550104673951853 3.0374790879432103 6.4332068066578358 1.2556298598647115 47.011980624403805 2.8649897235445674 0.61970064789056767
leaf_count=821 44 52 40 111 119 902 93 18 1933 22 66 247 29 602 105 946 32 40 82 22 77 292 164 76 18 246 407 80 1557 133 12
internal_value=-2.12003e-10 -0.0111301 0.00851354 -0.0152804 0.0101543 0.00845504 0.0127579 -0.0237893 -0.0257068 0.00604186 -0.0143826 -0.0109607 0.00861518 -0.0122705 0.00201168 0.0117077 -0.0141479 0.0122418 0.0114921 0.0180003 0.021444 -0.0101872 -0.0133296 -0.0259676 -0.00914895 -0.0216494 -0.0239214 -0.0150054 -0.0100862 -0.00446287 -0.0319615
internal_weight=360.443 156.216 204.228 133.092 187.754 167.851 23.1234 44.8151 42.1085 2.70657 1.82022 88.2774 5.53608 82.7413 56.3084 111.543 2.2573 109.286 16.2023 18.9635 15.9876 16.473 14.4457 5.26636 2.68594 32.8894 13.0631 6.6299 69.6782 22.6662 3.48469
internal_count=9388 6528 2860 6284 2266 2147 244 3106 3000 106 88 3178 140 3038 1089 1058 72 986 187 151 129 594 550 258 94 2179 734 327 2304 747 145
is_linear=0
shrinkage=0.05


Tree=21
num_leaves=32
num_cat=0
split_feature=5 0 2 5 0 1 4 1 5 1 2 1 5 1 2 5 2 5 5 5 1 2 5 2 1 5 5 1 1 2 5
split_gain=12.6808 5.66657 2.15773 1.91508 1.61964 1.26908 0.968295 1.11892 1.27375 0.864083 0.833954 0.73264 0.889068 1.26804 0.856552 0.618081 1.36898 0.897466 0.649297 2.00353 0.631539 0.5991 0.581614 0.580283 0.55359 0.588018 0.565895 0.575161 0.821113 0.527334 0.49449
threshold=14.500000000000002 1.0000000180025095e-35 1.0000000180025095e-35 6.5000000000000009 1.0000000180025095e-35 2.5000000000000004 1.0000000180025095e-35 2.5000000000000004 12.500000000000002 2.5000000000000004 1.0000000180025095e-35 3.5000000000000004 30.500000000000004 4.5000000000000009 1.5000000000000002 19.500000000000004 2.5000000000000004 20.500000000000004 17.500000000000004 16.500000000000004 1.0000000180025095e-35 1.0000000180025095e-35 15.500000000000002 1.5000000000000002 1.5000000000000002 13.500000000000002 10.500000000000002 8.5000000000000018 5.5000000000000009 1.5000000000000002 22.500000000000004
decision_type=2 2 2 2 2 2 2 2 2 2 2 2 2 2 2 2 2 2 2 2 2 2 2 2 2 2 2 2 2 2 2
left_child=1 3 -2 21 5 15 7 8 29 -3 -8 14 13 -13 -7 18 17 23 19 -4 -20 -1 -16 -17 -12 26 27 28 -26 -5 -19
right_child=2 9 4 6 -6 11 10 -9 -10 -11 24 12 -14 -15 22 16 -18 30 20 -21 -22 -23 -24 -25 25 -27 -28 -29 -30 -31 -32
leaf_value=-0.0376846434644489 -0.0092879552661865577 0.016677027069401103 0.0010739435899472386 -0.019498741260317209 0.02331879143076122 -0.0015757859220100108 -0.023854516830965275 -0.029838656776318358 0.053580906804424816 -0.0088259702159556776 -0.0064279429413282843 0.01268197039652251 0.025569074967232038 -0.019535719891154421 0.0085113502767020233 0.016567875154104943 0.040010424587397654 -0.0012226586071216376 0.013039160711379847 0.034461704132314586 -0.0040746354884297177 -0.021558423261561099 -0.038928236908048829 0.041926556066383264 -0.012060851259823582 0.0031054635380994493 -0.027527236719556394 0.018615818548326626 -0.049658743693169409 0.019720691696627681 0.010881368499767072
leaf_weight=7.2561880273278794 16.241291977465153 18.68201063293964 13.288260093890132 1.6571619897149497 19.578746747225523 8.9759685238823312 13.903826779220251 1.5722307735122738 1.7123885806649921 4.0394888031296423 39.150460582226515 7.1821943307295459 4.2016085833311072 5.3136610477231443 0.80926779191940923 6.582414396107195 4.3307132776826611 9.6797931697219592 7.3743808865547207 6.788800409063696 20.040447328239679 27.919618516461924 3.2042352017015219 3.4322354383766651 18.432244337629538 3.9378818213008335 9.5505177467130107 1.3568924395367492 1.5763572040013958 1.7752314144745467 65.772126050665975
leaf_count=791 594 151 184 81 119 166 816 63 15 93 1151 142 40 217 18 64 35 116 103 44 315 1873 89 31 738 123 445 41 103 44 583
internal_value=-4.15443e-11 -0.0108917 0.00819164 -0.0149239 0.0097134 0.0081181 -0.011221 0.0070767 0.0183579 0.012143 -0.0126191 -0.00125584 0.00567208 -0.00101808 -0.0101614 0.0101451 0.0125849 0.0111952 0.00553195 0.0123636 0.000528846 -0.024885 -0.0293627 0.0252588 -0.0105082 -0.0150915 -0.0174094 -0.0128866 -0.015023 0.000785521 0.00932853
internal_weight=355.319 152.522 202.796 129.801 186.555 166.976 94.6252 6.71701 5.14478 22.7215 87.9082 29.6869 16.6975 12.4959 12.9895 137.289 89.7973 85.4666 47.4919 20.0771 27.4148 35.1758 4.0135 10.0146 74.0044 34.8539 30.916 21.3655 20.0086 3.43239 75.4519
internal_count=9388 6528 2860 6284 2266 2147 3620 203 140 244 3417 672 399 359 273 1475 829 794 646 228 418 2664 107 95 2601 1450 1327 882 841 125 699
is_linear=0
shrinkage=0.05


Tree=22
num_leaves=32
num_cat=0
split_feature=5 0 2 5 0 1 2 4 1 5 4 2 5 2 5 5 2 1 5 2 1 2 5 5 5 1 5 1 1 5 2
split_gain=11.5756 5.65583 2.08973 1.86061 1.51357 1.34773 1.05196 0.910097 1.16435 1.24792 0.883539 0.780259 0.588574 0.526907 0.705196 0.911538 0.512136 0.473892 0.467181 0.45364 0.436565 0.430528 0.409552 0.403189 1.08551 0.558658 0.400427 0.389673 0.732392 0.985154 0.531614
threshold=15.500000000000002 1.0000000180025095e-35 1.0000000180025095e-35 6.5000000000000009 1.0000000180025095e-35 1.5000000000000002 2.5000000000000004 1.0000000180025095e-35 2.5000000000000004 12.500000000000002 1.0000000180025095e-35 1.0000000180025095e-35 1.5000000000000002 1.0000000180025095e-35 3.5000000000000004 8.5000000000000018 1.0000000180025095e-35 4.5000000000000009 38.500000000000007 2.5000000000000004 1.0000000180025095e-35 1.5000000000000002 17.500000000000004 7.5000000000000009 12.500000000000002 1.5000000000000002 32.500000000000007 3.5000000000000004 2.5000000000000004 20.500000000000004 1.5000000000000002
decision_type=2 2 2 2 2 2 2 2 2 2 2 2 2 2 2 2 2 2 2 2 2 2 2 2 2 2 2 2 2 2 2
left_child=1 3 22 12 5 18 10 8 9 21 -7 -9 -1 14 -3 -16 -14 27 19 -4 -13 -5 -2 25 -25 -15 -6 28 -12 -30 -29
right_child=2 13 4 7 26 6 -8 11 -10 -11 17 20 16 23 15 -17 -18 -19 -20 -21 -22 -23 -24 24 -26 -27 -28 30 29 -31 -32
leaf_value=-0.053505610191406032 -0.046863093692595059 0.028750556749357815 0.01129259303302812 -0.018582516102613456 0.029519944822173152 0.014613988973723813 0.029765286979420616 -0.022893438038130282 -0.031570343454910381 0.051771536893247316 0.0013886920352524871 -0.0031202243788248196 -0.035035893662821886 0.017248880863100082 -0.058977216270651715 0.00085168765839256286 -0.019519702227543886 -0.018384225790137997 -0.011593499226565801 0.028625657429871984 -0.012019540208703383 0.01743622375585142 -0.0074548935124243987 0.035386300621192072 0.0025682481077217581 -0.0060661285515460281 0.012906395302230343 -0.0033539911463750559 -0.00046601571677817844 -0.034213492883502922 0.023822336481043614
leaf_weight=1.6248021631035943 0.68923221481963892 1.1461888384073997 102.48178953398019 1.5827211006544524 11.229809354990723 8.4373351829126459 3.1351979169994584 13.787848253734408 1.4976505003869531 1.8227026853710411 20.107409412041306 17.836387394461781 6.6762998616322866 6.5238164514303225 0.91472647618502412 2.0941170817241073 26.140925566665828 4.5441314731724551 2.1531950738281003 3.9192162547260514 60.60847643809393 1.7435780335217712 15.175687653943895 6.1182768084108812 4.2839379590004683 4.2386015462689102 5.3571273423731318 3.9226094763725987 4.7070545125752705 4.0004029180854559 3.3247593436390162
leaf_count=177 57 11 914 81 70 104 39 830 63 15 357 467 748 36 33 30 1739 174 40 32 2286 44 523 49 42 58 34 76 101 106 52
internal_value=2.05581e-10 -0.0100082 0.00821863 -0.0141225 0.00977413 0.00829016 0.00168635 -0.0106364 0.0072327 0.018519 -0.000108646 -0.0119241 -0.0241307 0.0116554 -0.00462353 -0.0173371 -0.0226763 -0.00316777 0.0114644 0.011931 -0.00999606 0.000297771 -0.00916694 0.0148513 0.0218709 0.00806665 0.0241542 -0.00125037 -0.00385698 -0.0159704 0.00911326
internal_weight=351.826 158.641 193.185 133.321 177.32 160.733 52.1789 98.8794 6.64665 5.149 49.0437 92.2327 34.442 25.3197 4.15503 3.00884 32.8172 40.6064 108.554 106.401 78.4449 3.3263 15.8649 21.1646 10.4022 10.7624 16.5869 36.0622 28.8149 8.70746 7.24737
internal_count=9388 6709 2679 6450 2099 1995 1009 3786 203 140 970 3583 2664 259 74 63 2487 866 986 946 2753 125 580 185 91 94 104 692 564 207 128
is_linear=0
shrinkage=0.05


Tree=23
num_leaves=32
num_cat=0
split_feature=5 0 2 5 0 1 4 1 5 2 2 4 2 5 1 5 2 2 5 1 5 1 1 5 5 5 5 2 5 2 2
split_gain=10.4067 4.95103 1.95008 1.71003 1.50329 1.38163 0.79432 0.862696 0.792467 0.747635 0.624759 0.717014 0.557249 0.67515 0.605888 0.53015 0.504886 0.464936 0.415425 0.403229 0.817638 0.399313 0.899435 0.667186 0.396251 0.647156 0.452945 0.528739 0.439 0.909568 0.663344
threshold=15.500000000000002 1.0000000180025095e-35 1.0000000180025095e-35 6.5000000000000009 1.0000000180025095e-35 1.5000000000000002 1.0000000180025095e-35 2.5000000000000004 12.500000000000002 1.0000000180025095e-35 2.5000000000000004 1.0000000180025095e-35 1.0000000180025095e-35 3.5000000000000004 1.5000000000000002 1.5000000000000002 1.0000000180025095e-35 1.5000000000000002 32.500000000000007 2.5000000000000004 38.500000000000007 3.5000000000000004 4.5000000000000009 20.500000000000004 17.500000000000004 16.500000000000004 19.500000000000004 2.5000000000000004 20.500000000000004 1.5000000000000002 1.5000000000000002
decision_type=2 2 2 2 2 2 2 2 2 2 2 2 2 2 2 2 2 2 2 2 2 2 2 2 2 2 2 2 2 2 2
left_child=1 3 -2 15 5 24 7 8 17 -8 11 -7 13 -3 -15 -1 -17 -5 -6 -13 21 23 -23 -21 25 -4 -26 28 29 -28 -30
right_child=2 12 4 6 18 10 9 -9 -10 -11 -12 19 -14 14 -16 16 -18 -19 -20 20 -22 22 -24 -25 26 -27 27 -29 30 -31 -32
leaf_value=-0.051875741796135716 -0.0089647920811114397 0.026659054362802949 0.010354645674363836 -0.018062643700498496 0.029400575421454168 0.012927657219018483 -0.022133122762999783 -0.027528997162866522 0.043750370777806191 -0.0093934499471116928 0.022105315961305532 0.0020157647626518308 0.01425226678824928 -0.0030443284428911537 -0.052332910852905139 -0.034249481374386576 -0.018620609404803604 0.019096326823099627 0.012240880153908168 -0.0015049843072963336 -0.050823179109119924 0.012023015816825466 -0.017346606907557485 -0.030195287479431249 0.00324994479235328 0.032108377977689943 0.0088698141623299986 0.033344981906160386 0.013431692899174992 0.044440011068771823 0.0026974540993476188
leaf_weight=1.5299564753659058 15.853360842447726 1.1161461211740999 8.7481492385268194 1.5401939724106335 10.958394546061756 8.5482365656644088 13.515864718938245 1.4368328135460613 1.7389559168368576 77.843324416782707 3.3465293683111659 20.039064735174179 20.756159957498312 1.8931363141164186 0.92970248730853189 6.4627206244040272 25.783460444072261 1.8564221449196336 5.2010870799422255 4.6744480803608948 1.0558773353695858 6.7120026312768442 4.262202596757561 3.5769678950309753 19.917353436350822 5.6121388562023631 4.793842799961566 2.7308710720390073 39.556533730588853 2.8751123808324337 22.624261120334268
leaf_count=177 580 11 73 81 70 104 830 63 15 2753 39 357 185 30 33 748 1739 44 34 101 11 124 172 101 299 31 38 21 315 23 186
internal_value=2.62621e-10 -0.00956418 0.00782821 -0.0134163 0.00934748 0.00787144 -0.0100704 0.00671843 0.0163002 -0.0112782 0.00120534 -0.000225893 0.0109803 -0.006261 -0.0192775 -0.0231174 -0.0217529 0.00224661 0.0238776 -0.00301454 -0.00798471 -0.005632 0.000616333 -0.0139422 0.0111288 0.0188562 0.00992909 0.011762 0.0109181 0.0222052 0.00952608
internal_weight=347.489 156.403 191.086 131.708 175.233 159.074 97.9316 6.5724 5.13557 91.3592 52.2153 48.8688 24.6951 3.93898 2.82284 33.7761 32.2462 3.39662 16.1595 40.3206 20.2815 19.2256 10.9742 8.25142 106.858 14.3603 92.498 72.5806 69.8498 7.66896 62.1808
internal_count=9388 6709 2679 6450 2099 1995 3786 203 140 3583 1009 970 259 74 63 2664 2487 125 104 866 509 498 296 202 986 104 882 583 562 61 501
is_linear=0
shrinkage=0.05


Tree=24
num_leaves=32
num_cat=0
split_feature=5 0 2 5 0 1 5 4 1 5 2 2 1 1 5 5 5 2 5 5 5 1 1 5 1 1 5 5 1 5 5
split_gain=9.34898 4.53438 1.88725 1.52154 1.47479 1.29563 0.781344 0.772581 0.784059 0.725427 0.641195 0.534663 0.486755 0.605395 0.56036 0.918887 0.515189 0.469428 0.440042 0.437093 0.507431 0.553871 0.375073 0.371472 0.363099 0.439246 0.411099 0.365495 0.360212 0.662898 0.617359
threshold=15.500000000000002 1.0000000180025095e-35 1.0000000180025095e-35 6.5000000000000009 1.0000000180025095e-35 1.5000000000000002 25.500000000000004 1.0000000180025095e-35 2.5000000000000004 12.500000000000002 1.0000000180025095e-35 1.0000000180025095e-35 2.5000000000000004 4.5000000000000009 12.500000000000002 7.5000000000000009 6.5000000000000009 1.5000000000000002 1.0000000180025095e-35 17.500000000000004 16.500000000000004 1.0000000180025095e-35 7.5000000000000009 18.500000000000004 1.5000000000000002 6.5000000000000009 27.500000000000004 18.500000000000004 1.5000000000000002 13.500000000000002 10.500000000000002
decision_type=2 2 2 2 2 2 2 2 2 2 2 2 2 2 2 2 2 2 2 2 2 2 2 2 2 2 2 2 2 2 2
left_child=1 3 24 11 5 19 22 8 9 17 -9 -1 14 -14 15 16 -3 -5 -13 20 21 -4 -7 -21 26 -26 27 -2 -12 30 -30
right_child=2 12 4 7 -6 6 -8 10 -10 -11 28 18 13 -15 -16 -17 -18 -19 -20 23 -22 -23 -24 -25 25 -27 -28 -29 29 -31 -32
leaf_value=-0.034689515566380842 0.0060146273589177712 0.014900813750210793 0.027009696000849539 -0.017969772753992742 0.023688793891772919 -0.0020229598163228881 0.010720291614263477 -0.020877171232825537 -0.02593130699774256 0.043284563241639304 -0.0058281112451044077 -0.064068787972897112 0.0053447934883819872 -0.039641494150993807 -0.0037073497520586259 0.032581750984555735 -0.01119847925285374 0.019171246206490508 -0.017889125115818555 -0.0017952651520305618 0.030873359888908016 0.0013840238100533853 -0.034331036325196539 0.01045924055318369 -0.014264679196672125 -0.062250904068211411 0.018007560657700629 -0.016640690992181933 -0.011095587090702462 0.0014352589517073544 -0.026707356657576772
leaf_weight=6.5919209581334135 2.8826949377544206 7.6497684568166822 3.4883025921881181 1.4999453451018774 15.726417019963263 35.387164397165179 15.006490874569861 13.377935101976616 1.4144939081743357 1.6610778756439684 41.341101032681763 0.52618684060871856 3.4269705144688478 0.95661631412804116 3.6963617801666251 6.4478007871657601 2.5116198062896729 1.9656239878386257 26.286582599859685 6.686414571478962 5.4978951178491107 5.33129558339715 0.9217236191034307 82.313140864484012 5.8559689451940349 0.51916491985321034 1.9073884235695002 4.6550333136692643 20.86576871434227 6.8229743954725555 9.0916760778054577
leaf_count=791 81 63 29 81 104 781 187 830 63 15 1223 58 66 30 36 46 18 44 1815 112 31 44 41 770 262 24 42 171 882 203 445
internal_value=1.73103e-11 -0.00902311 0.00756701 -0.0127159 0.00910107 0.00761747 0.00112332 -0.00957588 0.00702464 0.0161175 -0.0107626 -0.0219319 0.0106376 -0.00447242 0.0138996 0.017818 0.00844978 0.00309611 -0.0187954 0.010843 0.0189513 0.0115194 -0.00284312 0.00953858 -0.0089524 -0.0181725 -0.00272916 -0.00797649 -0.00903055 -0.0126301 -0.0158335
internal_weight=342.314 156.134 186.179 131.445 170.359 154.632 51.3154 98.0406 6.54114 5.12665 91.4995 33.4047 24.6891 4.38359 20.3056 16.6092 10.1614 3.46557 26.8128 103.317 14.3175 8.8196 36.3089 88.9996 15.8203 6.37513 9.44512 7.53773 78.1215 36.7804 29.9574
internal_count=9388 6709 2679 6450 2099 1995 1009 3786 203 140 3583 2664 259 96 163 127 81 125 1873 986 104 73 822 882 580 286 294 252 2753 1530 1327
is_linear=0
shrinkage=0.05


Tree=25
num_leaves=32
num_cat=0
split_feature=5 0 1 5 2 4 0 2 2 1 5 5 1 0 5 5 1 5 5 2 5 5 2 5 2 5 1 5 1 1 1
split_gain=8.2076 4.19251 1.81644 1.31516 0.885022 0.80068 0.792884 0.740994 0.707545 0.678525 0.703949 0.648549 1.32808 0.636095 0.620564 0.608247 0.584222 1.40804 0.716791 0.550612 0.540935 0.532948 0.52992 0.42904 0.442492 1.47337 0.509644 0.426956 0.367659 0.507793 0.361357
threshold=15.500000000000002 1.0000000180025095e-35 1.5000000000000002 6.5000000000000009 1.0000000180025095e-35 1.0000000180025095e-35 1.0000000180025095e-35 1.0000000180025095e-35 1.0000000180025095e-35 3.5000000000000004 12.500000000000002 5.5000000000000009 1.0000000180025095e-35 1.0000000180025095e-35 32.500000000000007 3.5000000000000004 1.5000000000000002 10.500000000000002 7.5000000000000009 1.0000000180025095e-35 27.500000000000004 25.500000000000004 1.0000000180025095e-35 1.0000000180025095e-35 2.5000000000000004 5.5000000000000009 2.5000000000000004 2.5000000000000004 4.5000000000000009 2.5000000000000004 5.5000000000000009
decision_type=2 2 2 2 2 2 2 2 2 2 2 2 2 2 2 2 2 2 2 2 2 2 2 2 2 2 2 2 2 2 2
left_child=1 3 6 22 -4 9 7 20 15 10 -5 -10 -13 21 -8 -3 -14 18 -18 -7 -2 -6 -1 -24 27 26 -26 -25 29 -23 -29
right_child=2 8 4 5 13 19 14 -9 11 -11 -12 12 16 -15 -16 -17 17 -19 -20 -21 -22 28 23 24 25 -27 -28 30 -30 -31 -32
leaf_value=-0.033740342520484551 -0.010785989131231889 0.02280912268774081 -0.017638766406197891 0.00095905957373501214 -0.003017655507629129 -0.019876522375225331 0.032843348752665723 0.010661594335536732 -0.0014136300351929299 -0.038105588302042269 0.037750103475981511 -0.012699191222909099 0.038143996863979526 0.016825936187062816 0.0049480052913450697 -0.021852507793363878 0.014566674846450883 -0.018228623643811649 0.052669583784608558 -0.008793263477757763 0.020395491571992094 0.013846952678229597 -0.063760910234684331 -0.038478854843760096 0.061696908416683197 -0.060866884174674618 0.00025061526098976657 -0.014175402626341239 0.025319313789825645 -0.0063318455271747787 -0.035364357614382808
leaf_weight=6.3491358156315973 6.9466947796754521 1.0602342262864142 6.2396220355294636 3.8448635286185882 35.910042905248702 13.108925386797635 6.677238589152692 103.52336969785392 4.981958405114713 0.71852072002366174 1.9644487164914606 2.6725537292659274 5.6064682658761722 6.5727254115045062 2.8424160070717335 2.7132878424599767 2.8997174478136003 2.0643805488944054 2.1490437667816877 77.196244766004384 1.7390904519706962 6.8243678230792266 0.49503998528234916 2.4344289579894456 0.76075753802433499 0.57648557517677534 0.60647202841937542 19.277303036069501 2.5894074728712431 5.7400606758892536 2.2466400782577685
leaf_count=791 242 11 286 146 822 830 53 986 47 36 21 18 36 44 21 63 33 34 17 2753 38 80 58 244 21 32 30 1297 33 74 191
internal_value=5.35192e-11 -0.00854448 0.00707694 -0.012109 0.000248644 -0.00917973 0.01066 0.00948467 0.0105832 0.00773089 0.0134001 0.0142666 0.0193418 0.0021851 0.0245142 -0.00930407 0.026074 0.0165606 0.0307855 -0.0104021 -0.00454275 0.000300592 -0.0207711 -0.0176517 -0.0167704 0.00617349 0.0344407 -0.0186318 0.00816384 0.00462827 -0.0163871
internal_weight=339.332 153.727 185.605 129.579 63.8762 96.833 121.729 112.209 24.1476 6.52783 5.80931 20.3741 15.3922 57.6366 9.51965 3.77352 12.7196 7.11314 5.04876 90.3052 8.68579 51.0639 32.7463 26.3971 25.9021 1.94372 1.36723 23.9584 15.1538 12.5644 21.5239
internal_count=9388 6709 2679 6450 1339 3786 1340 1266 259 203 167 185 138 1053 74 74 120 84 50 3583 280 1009 2664 1873 1815 83 51 1732 187 154 1488
is_linear=0
shrinkage=0.05


Tree=26
num_leaves=32
num_cat=0
split_feature=5 0 2 5 2 0 1 2 4 4 1 1 5 2 1 5 2 2 5 5 1 5 5 1 1 1 2 2 5 4 5
split_gain=7.60394 3.71296 1.59979 1.28716 1.18239 1.06587 0.933084 0.794401 0.685729 0.609816 0.620107 0.598512 0.56518 0.529556 0.517875 0.509083 0.473153 0.420764 0.416525 0.556687 0.840109 0.411937 0.373984 0.34111 0.34075 0.623481 0.792578 0.453155 0.411464 0.340454 0.438651
threshold=15.500000000000002 1.0000000180025095e-35 1.0000000180025095e-35 6.5000000000000009 1.0000000180025095e-35 1.0000000180025095e-35 1.5000000000000002 2.5000000000000004 1.0000000180025095e-35 1.0000000180025095e-35 2.5000000000000004 1.5000000000000002 19.500000000000004 1.0000000180025095e-35 3.5000000000000004 12.500000000000002 1.0000000180025095e-35 1.5000000000000002 12.500000000000002 8.5000000000000018 1.5000000000000002 21.500000000000004 1.0000000180025095e-35 4.5000000000000009 3.5000000000000004 2.5000000000000004 1.5000000000000002 1.5000000000000002 20.500000000000004 1.0000000180025095e-35 22.500000000000004
decision_type=2 2 2 2 2 2 2 2 2 2 2 2 2 2 2 2 2 2 2 2 2 2 2 2 2 2 2 2 2 2 2
left_child=1 3 29 16 11 6 -4 8 12 10 15 -3 -8 -11 18 17 -1 -5 19 20 -6 -7 -18 24 25 -10 -27 -26 -28 -2 -31
right_child=2 4 5 9 14 21 7 -9 23 13 -12 -13 -14 -15 -16 -17 22 -19 -20 -21 -22 -23 -24 -25 27 26 28 -29 -30 30 -32
leaf_value=-0.032797092488806849 0.012126075201306733 0.00071267255819268795 0.0096893896693439566 -0.016954037443251711 0.02505265999181315 0.029840857386509913 -0.012353547389219776 0.02601141498285969 0.0011028632851297294 -0.019224121294765254 -0.024347934713951348 -0.039412508896742422 0.01961914117486712 -0.0082556693792889737 -0.007789456707935633 0.036282553657805854 -0.062386199013256906 0.017850145935669842 0.0033250140639309862 0.037002990984985724 -0.0075279573705432758 0.013273363247050654 -0.016556468464279387 -0.016172302484771413 -0.0038976661244980362 -0.0045143244700527989 -0.017005527758154098 0.022220868155645529 -0.056106726270574371 -0.018890011744090579 -0.00062208123353647078
leaf_weight=6.1421021309215567 1.7448130636475969 2.334790537133816 103.73770252708346 1.5184843868482851 6.5094329267740303 6.9513032883405677 1.7533879410475472 3.0757775809615842 19.630435616709292 12.842627408215774 1.3447311073541639 1.5438830098137257 6.5289712436497211 76.875215615844354 2.2211237917654207 1.6918764282017944 0.45307882642373698 2.0283922394737601 3.8484475230798116 4.233223930001258 2.8426401801407337 8.151933088898657 25.409265056950971 4.3599066450260571 3.4042971972376099 5.5942499302327651 1.2830333402380349 3.2424190249294043 1.4146199924871323 7.9500968414358777 5.6013682442717254
leaf_count=791 44 37 986 81 40 51 44 39 357 830 63 37 60 2753 45 15 58 44 38 33 29 53 1815 174 76 130 30 52 47 357 179
internal_value=5.06494e-11 -0.00828641 0.00682233 -0.011635 0.0099701 0.00822281 0.00697985 0.00139033 -0.000213717 -0.00874794 0.00594014 -0.0152589 0.0128505 -0.00982574 0.0149488 0.0137148 -0.0203221 0.00294982 0.0178457 0.0219591 0.0151495 0.0208986 -0.0173594 -0.0029932 -0.00133103 -0.00375301 -0.0152489 0.00884355 -0.0375098 -0.00866251 -0.0113391
internal_weight=336.264 151.839 184.424 128.306 23.5335 169.128 154.025 50.2871 47.2113 96.3013 6.58348 3.87867 8.28236 89.7178 19.6549 5.23875 32.0044 3.54688 17.4337 13.5853 9.35207 15.1032 25.8623 38.929 34.5691 27.9223 8.2919 6.64672 2.69765 15.2963 13.5515
internal_count=9388 6709 2679 6450 259 2099 1995 1009 970 3786 203 74 104 3583 185 140 2664 125 140 102 69 104 1873 866 692 564 207 128 77 580 536
is_linear=0
shrinkage=0.05


Tree=27
num_leaves=32
num_cat=0
split_feature=5 0 1 5 0 2 2 5 4 1 5 2 5 5 5 1 2 5 2 1 2 0 4 4 1 5 1 1 2 5 5
split_gain=6.30558 3.97593 1.59078 1.21617 0.881313 0.714546 0.621667 0.58941 0.573655 0.557972 0.611621 0.512256 0.633432 0.696117 0.611931 0.825487 0.479026 0.46489 0.455946 0.416118 0.388124 1.15299 0.956627 0.864631 0.831137 1.73725 0.730412 1.08792 0.625405 0.362728 0.781321
threshold=15.500000000000002 1.0000000180025095e-35 1.5000000000000002 6.5000000000000009 1.0000000180025095e-35 1.0000000180025095e-35 1.0000000180025095e-35 32.500000000000007 1.0000000180025095e-35 2.5000000000000004 12.500000000000002 1.0000000180025095e-35 3.5000000000000004 8.5000000000000018 5.5000000000000009 1.0000000180025095e-35 1.0000000180025095e-35 27.500000000000004 1.0000000180025095e-35 2.5000000000000004 1.5000000000000002 1.0000000180025095e-35 1.0000000180025095e-35 1.0000000180025095e-35 4.5000000000000009 18.500000000000004 3.5000000000000004 2.5000000000000004 2.5000000000000004 17.500000000000004 16.500000000000004
decision_type=2 2 2 2 2 2 2 2 2 2 2 2 2 2 2 2 2 2 2 2 2 2 2 2 2 2 2 2 2 2 2
left_child=1 3 4 18 6 -4 17 -6 9 10 -5 12 -3 -14 -13 -16 -10 -2 -1 -17 23 22 -22 -7 -25 -26 27 -24 -28 30 -8
right_child=2 11 5 8 7 20 29 -9 16 -11 -12 14 13 -15 15 19 -18 -19 -20 -21 21 -23 26 24 25 -27 28 -29 -30 -31 -32
leaf_value=-0.032079605382561667 -0.010360122448877743 0.027434672291174151 -0.016512905912816605 0.0015006481397549188 0.031600141270046261 0.013151979626832537 0.0079516649821915249 0.0045864658645865279 -0.018313020968538863 -0.022886700716402145 0.0381192811280043 -0.00095270309739507036 -0.056470009286330683 -0.0010957502882561648 -0.0061906022045884997 0.030684651740775493 -0.0078096317403868734 0.018603696307146294 -0.016681008406588396 0.010074385755239956 -0.041980354903369231 0.038816205273311595 0.00670050580880149 -0.0027677505333437869 -0.11005379734026705 -0.012834106639144771 0.012488342891598028 -0.029412899714473202 0.056219476602604707 0.0081894781024242878 0.032315674316192443
leaf_weight=5.926155453547838 6.9278040844947082 1.0257559251040249 6.1156916180625549 3.480335736880078 7.0596746373921615 7.5887502040714017 9.0709890536963922 2.8281858656555414 12.639661227585746 1.3229748271405695 1.6959630958735941 4.7656358773820129 0.83817951660603318 1.7578115500509737 2.5598437264561644 8.9111875686794502 76.891811984125525 1.7317166384309528 25.4591727219522 3.3771147108636788 1.1318492228165329 2.4870656728744498 8.7647455558180827 23.902526946738366 0.55883138533681576 2.5853962092660367 4.9477160200476638 2.7365858419798306 0.97939622029662121 88.359697667881846 5.1637812033295623
leaf_count=791 242 11 286 125 53 77 73 21 830 63 15 47 33 30 18 65 2753 38 1873 55 32 17 139 463 18 93 120 81 13 882 31
internal_value=-1.47826e-10 -0.00757518 0.00623816 -0.0110439 0.0095683 -0.000289805 0.00829691 0.0238735 -0.00825125 0.00609193 0.0134984 0.011446 -0.00583057 -0.0189747 0.0146362 0.0196396 -0.00929245 -0.00456799 -0.0195886 0.0250205 0.00149199 0.00684695 0.00256309 -0.00176212 -0.0059467 -0.0301132 0.00545586 -0.00189219 0.0197145 0.00938277 0.0167899
internal_weight=333.592 150.652 182.94 127.416 121.142 61.7986 111.254 9.88786 96.0307 6.49927 5.1763 23.2355 3.62175 2.59599 19.6138 14.8481 89.5315 8.65952 31.3853 12.2883 55.6829 21.0474 18.5603 34.6355 27.0468 3.14423 17.4284 11.5013 5.92711 102.594 14.2348
internal_count=9388 6709 2679 6450 1340 1339 1266 74 3786 203 140 259 74 63 185 138 3583 280 2664 120 1053 402 385 651 574 111 353 220 133 986 104
is_linear=0
shrinkage=0.05


Tree=28
num_leaves=32
num_cat=0
split_feature=5 0 0 1 5 2 5 5 1 2 2 1 2 4 5 1 1 2 5 5 5 1 2 5 5 1 1 1 5 5 1
